663 50
് -0.870957 -0.096643 1.776755 0.457104 -1.640442 -0.097132 0.155937 -0.001152 -0.091720 0.190306 -1.282614 0.154387 -0.699319 0.502803 -0.207020 0.929727 0.039067 -1.500651 1.453155 0.581978 -0.578596 -0.174983 0.904130 -0.002245 -0.978569 0.400989 0.915910 -0.562916 -0.108212 0.191365 -0.662338 -0.565495 0.228105 -0.491159 -0.702643 -0.668785 -0.213951 1.403898 -0.424371 0.227306 -0.093961 0.134309 -0.609520 0.704717 1.406497 0.246192 0.051371 -0.154281 0.874248 -0.113016
ി -0.905357 0.995898 0.063718 1.226526 -0.608808 0.492670 0.941692 -0.956858 0.278636 -0.380099 -0.279472 -0.795620 0.283078 1.021773 -1.480594 -0.087080 -0.745941 -0.710289 1.861939 0.615062 -0.307664 -0.173892 0.108652 -0.496159 0.340614 0.001543 1.206671 0.448059 0.905083 -0.649722 -0.621230 -1.168220 0.478395 0.522320 -0.951985 -1.000199 -1.436959 1.111426 -0.184203 0.346435 0.262917 0.608606 -0.422886 0.266570 1.643993 0.559900 -0.089341 0.340074 1.971836 0.112087
ന 0.006062 0.214391 0.181302 -0.239391 0.724048 0.398394 -0.370270 -0.247107 0.298103 0.731394 -0.086578 -0.098292 1.014521 0.124903 -1.439000 0.842910 0.260359 0.768851 -0.924979 -0.493048 -0.637055 -0.029927 0.615694 1.540725 -0.107886 -1.546055 -0.001731 0.420153 0.312754 0.539009 -0.101897 -0.947691 0.260872 0.017513 0.949964 0.612387 -2.086887 -0.334590 0.882598 0.955287 1.093859 -0.180704 -0.090450 0.672886 -0.184156 -2.202343 0.260867 -0.661442 0.256041 -0.400420
ക -0.195020 0.581841 -0.018171 1.617168 -0.798049 0.345198 -0.814742 -0.516421 2.100236 -1.748001 -1.029458 0.130259 0.153454 -0.007579 -0.251409 1.666178 2.140883 -0.096635 -0.787126 -0.549470 0.619507 0.686477 0.215926 0.110941 0.007244 -0.410370 -0.482295 -0.340406 -1.605325 -0.460975 0.827941 0.596115 0.925716 0.576881 0.659307 0.451373 -0.902934 1.063277 0.885608 -0.137736 0.378774 0.293689 -0.316753 -1.358104 -0.572539 0.183686 -1.166603 0.147532 -0.515831 -1.512232
ത -0.502985 -0.121827 0.201543 1.013870 1.569846 -0.841948 -0.181671 -0.274063 0.241193 0.333639 0.800996 0.147108 0.695150 1.509264 -1.354585 0.099331 0.015409 0.345172 -0.358370 0.024645 -0.698756 0.039057 0.552552 0.912838 1.857723 -0.908879 0.155727 0.037089 -0.129948 0.345165 0.854431 -1.050286 -0.572231 0.456930 1.127426 -0.005939 -2.148249 1.482400 0.743254 0.969251 0.822002 -0.827863 -1.470427 -0.863108 -0.297416 -1.105805 -0.633839 -0.261683 -0.160919 0.557240
ു -0.326335 -0.249473 -0.400390 0.006904 -1.915675 0.481146 -1.034606 -0.494510 1.231123 -1.226554 -1.357646 -0.389529 -0.275461 0.417542 -0.633692 0.498389 -0.015538 -0.117421 1.151227 1.257483 -0.190751 -1.267909 -0.240048 0.143498 -0.275304 -1.232494 0.760410 1.115415 -0.789620 -0.397015 -0.441283 -1.865602 -1.211776 -1.645151 -0.184535 -1.046411 -0.935016 1.582273 -0.384835 0.674407 0.557655 -0.519915 -1.188231 -0.544893 0.759650 0.086153 -0.984006 0.591268 1.741388 -1.825676
ാ -0.736390 2.362123 0.368967 0.090034 0.182866 0.197215 1.771747 0.292852 -0.852693 0.010420 -2.396418 1.419112 1.750177 0.869609 -0.850881 0.032594 0.162805 -0.639970 0.776009 2.156761 -0.581678 -0.972125 1.454404 -0.664718 0.347263 0.068040 1.219336 1.456429 -0.587532 0.838282 -0.825400 -0.920353 0.366507 0.203780 -0.650425 -0.511286 -1.181559 -1.386970 -0.925252 0.463358 0.862761 0.753202 -1.378666 -0.969694 0.741977 -0.041798 -0.628379 0.659230 1.193006 0.348378
യ -0.020634 -0.121738 0.789479 -0.692197 1.124659 -0.234194 0.158169 -0.278511 -0.455205 -0.091020 -0.154951 -0.000083 0.974230 -0.223129 -1.023471 0.461352 0.623072 -0.103549 -1.299971 -0.294304 -0.408175 -0.654963 -0.575738 0.479700 -0.036315 -0.882569 0.786473 -0.496229 0.179476 0.869859 -0.538191 -0.512542 0.744557 1.149132 -0.556046 0.341011 -0.247985 0.149100 1.930834 -0.516824 0.441977 -0.047702 -1.607802 -0.104804 0.322185 -0.580359 -0.595497 0.467602 0.058909 -1.050855
ര 0.727309 1.397314 1.803429 0.104504 -0.168994 0.652008 -0.186514 -0.213856 -1.188716 0.135366 -0.653012 -0.626757 0.231048 -0.426096 -0.478467 -0.237149 0.180324 -1.039720 -0.863581 0.143625 -0.811652 -0.360166 0.603220 1.384234 0.364031 -0.444226 1.204744 -0.390202 0.082004 -0.293171 -0.729171 -0.648657 0.143733 0.558398 -0.286768 2.264867 -0.633591 1.248565 2.500163 0.600712 0.464190 0.218393 -1.633021 -0.154763 0.571988 -0.762528 0.209655 0.152230 -0.426244 1.971183
പ -1.075603 0.287937 0.450480 -0.146518 0.012598 0.059199 -0.914246 -0.232757 3.021204 0.595326 -0.380679 -0.786514 -1.260550 0.641568 0.625509 -0.699053 1.878923 -0.167299 -0.217167 -0.966942 1.387080 -0.851415 0.667928 0.501167 0.657344 -0.102490 -1.269083 -0.244547 -0.043278 -0.191831 -0.400639 0.355492 -0.197033 -0.020651 0.320989 -0.073349 -2.555835 1.214337 1.426500 0.424920 -0.323679 -0.471264 -1.687216 -0.414234 0.480383 -0.550063 0.259116 -1.471281 -0.236386 -1.854481
ട 1.334076 -1.074544 -0.140364 -0.272255 -0.878188 -0.193171 -0.342097 -1.773610 3.436439 -1.779337 -1.872015 0.400136 -1.670022 1.326643 1.065441 0.287639 1.591055 0.250356 -1.304788 1.323685 0.688726 0.940042 0.318443 0.147547 -2.204410 -2.031172 0.014482 -0.653710 -0.333845 -0.940691 0.308652 1.132280 -1.082181 -0.825683 1.939132 -0.571938 -3.214626 2.271487 2.222058 -0.756735 0.599424 0.144275 -0.371225 1.125010 -0.335229 -1.342005 0.670355 -0.582765 -1.537106 -2.602820
വ -0.799416 0.454251 -0.244858 0.645335 0.177559 0.144198 0.051792 0.378876 -1.593315 0.617866 -0.391116 0.076511 0.595085 -0.332399 -0.991772 1.662594 0.321182 -0.726490 -0.690614 -0.331648 0.034120 0.155660 1.514345 1.270829 0.279549 0.036541 -0.023434 -1.650733 -1.020418 0.252869 0.303285 -1.717447 0.443492 0.177239 -0.195497 1.130916 0.026947 0.275269 1.065269 0.255097 -0.250353 0.991731 -0.164087 -2.314702 -0.114680 -0.754808 -1.308153 0.069398 -0.207870 1.458180
മ 0.493454 1.074013 -0.340697 0.374022 0.833288 -0.041136 0.931944 0.003237 -1.922760 0.733735 0.565351 0.297074 0.267035 -0.335080 -0.474366 1.574922 0.554379 -1.491464 -0.517181 -0.526808 -0.143487 0.275137 0.186483 -0.070667 0.509801 0.070614 0.192461 -0.752601 -1.041932 0.124649 -0.151810 0.125771 1.275898 2.068366 -0.085188 -0.112813 -0.997355 0.014998 0.292848 1.069400 0.286580 0.945993 -0.975277 -0.965160 0.688567 -0.691715 -0.602345 1.061720 -0.376340 -0.993495
ം -0.514663 2.191181 0.567372 1.070153 0.325225 -0.328451 -0.535913 -0.515725 -1.930601 -0.141689 -0.525538 1.086741 1.632060 0.040243 -1.787134 0.594540 -0.004946 -1.706800 1.318386 -0.622527 -1.958054 0.037688 1.650920 -0.708387 -1.298918 -0.255134 2.369460 -0.809090 0.656137 1.683796 -0.693112 0.847875 0.241372 0.497121 -0.048003 -0.816483 -1.232184 -0.701814 2.508065 0.554465 0.262977 -0.625488 0.627084 -0.739849 -0.721474 1.043973 -0.596026 1.158381 1.274811 0.883079
െ 0.538857 -0.744788 -0.507536 -0.017031 -1.276446 1.267479 -0.064335 -0.526103 1.554465 -0.345222 -0.868113 1.273033 -1.472145 -1.070162 -0.352743 -0.623373 -0.843764 0.588856 1.886784 0.616869 -0.940760 -0.434905 1.231844 -0.730254 -0.429801 -1.464722 1.153775 1.420585 -0.115285 0.056766 1.433965 -0.765450 -0.243409 0.788784 -1.446798 -2.983665 -0.426256 1.588685 -0.752022 0.307780 2.534035 -0.118561 0.244823 0.644723 2.609369 0.145180 1.324368 -0.127861 1.645853 -0.496937
ല 1.126927 -0.546558 -0.284333 0.864990 -0.720731 0.511393 0.577207 -0.192676 -0.383981 -1.220439 0.256151 1.138584 -0.538354 -0.851818 -0.582064 -0.716522 0.858776 0.263562 -1.397009 1.408567 -0.778160 1.381559 -2.139688 0.017367 0.857397 -0.598163 0.596912 -0.756903 -0.440317 0.739723 -0.864479 0.592360 0.004013 -0.647184 -0.010265 -0.518284 1.027471 0.644344 2.372513 -0.268176 1.032886 0.119858 -0.377916 -0.833843 0.174221 0.749027 -1.580981 0.446925 -1.659985 0.425609
സ 1.797619 0.894622 0.440807 0.872651 0.784731 0.543385 1.410438 1.291268 -0.663860 1.802363 -0.540593 -0.447391 0.415032 -0.857437 -0.288395 -0.521979 -0.035573 1.529441 -0.146656 1.044726 -1.010808 1.365383 -1.415209 -0.340875 1.719519 1.817814 -1.243131 -1.250205 0.164644 0.187734 -0.502497 0.798320 1.184054 1.693703 -0.929922 2.979169 0.051993 -2.470723 0.683186 0.564001 1.681915 -1.242891 -1.196214 -1.495073 1.725464 -1.836227 -0.857338 0.811215 1.241040 0.812591
റ 2.343392 -2.495651 -0.413352 0.206947 -1.324615 0.621518 2.585464 -0.579384 0.721571 2.160131 1.335654 1.917259 -2.560318 -3.534749 0.255065 -0.061617 -0.916737 1.801178 -0.301693 -2.460107 0.101662 2.790595 -1.554131 -0.889331 -0.345068 0.644337 -2.393495 -1.070104 -0.494711 -0.337703 1.591699 1.528045 1.186561 -0.639079 0.159630 -1.201342 -1.981836 -0.956535 -0.086016 -0.547559 0.954612 -0.242933 -0.339857 1.599028 0.207512 -0.044537 0.661506 -1.073665 0.298730 -1.110073
ച -0.144065 -0.247726 0.203607 0.916198 -2.308707 -0.238504 -1.400170 0.075119 -0.101499 1.183589 0.806144 -0.937962 -1.698286 1.370138 -0.723788 0.179515 3.900439 3.038994 0.132866 0.197528 1.638822 0.041046 1.921427 0.853435 1.425141 -0.717260 1.526618 0.372514 3.671538 -1.448343 0.495009 -5.484666 -1.077328 -1.634986 1.563963 0.267605 -2.775682 1.327209 0.958245 0.489495 -0.705251 -0.242119 -0.555873 0.904756 0.429812 -1.045048 -0.568631 -1.054685 -0.789895 0.573519
. 0.298317 0.338036 0.934869 -0.808538 0.331231 1.380697 -0.122462 -0.724124 0.139784 -0.698760 -1.624409 -0.499904 -1.574937 1.811424 0.197221 1.318941 2.520443 0.564601 0.753195 0.152365 0.301509 -0.806702 0.058818 1.854105 -1.852184 -2.729618 0.141783 0.663885 1.264278 -0.217948 0.817115 -1.606239 0.475635 -1.595521 -0.535480 0.215588 0.019890 -0.458177 -1.272730 -1.238327 0.598200 0.534857 1.241403 2.403790 -1.036432 -2.299423 2.267150 0.982907 -0.267588 0.793319
ണ 0.897964 0.369364 0.204261 -0.029030 1.900308 -0.397420 -0.335428 -0.544057 0.997307 -1.242299 -1.147960 -0.970948 0.300078 0.245892 0.191227 1.283933 1.553808 -0.599807 -1.928606 0.261903 0.632129 -0.120091 -0.960242 0.027876 -1.558969 -0.202099 0.041095 0.799314 -0.769786 -1.742336 0.905706 -0.823873 -0.862654 1.652209 -1.445888 -0.407788 -0.620545 0.722495 2.226540 1.782141 1.037368 -1.592659 -0.358408 0.909385 -0.150241 0.313668 -0.521942 -0.112210 0.465320 -1.803692
ള -0.590848 -2.225822 0.727269 1.854605 -0.458886 -0.774768 -1.819543 -0.019627 2.706807 -2.043456 -1.356652 0.531731 -0.481319 -1.076808 -2.039656 0.682343 0.810710 0.207296 -2.664865 1.583872 -1.977681 0.568480 -0.661234 -2.382232 -1.117905 -2.055219 2.628667 0.274528 -0.222029 0.352794 -2.019423 1.027687 0.504296 -0.501195 -0.039709 -1.277579 0.082232 2.294378 1.800141 1.345197 1.839081 1.903985 0.070247 -1.229131 -1.286772 -0.048004 -2.265989 0.923613 -0.169739 0.759470
ങ -2.107507 -2.891358 0.839764 1.468243 -0.625800 1.120085 -2.031449 2.312807 4.030424 -1.236705 -2.684614 -0.078327 -0.129949 0.799362 -1.896869 -1.308897 1.075660 -1.950901 -1.659779 1.199937 -1.823723 2.973074 1.108295 -2.676648 -3.564645 -2.411259 1.209800 -0.214182 -3.514243 -0.416793 -2.957412 -0.968515 0.618476 0.512210 -2.187248 0.140020 -0.083290 1.238970 0.269778 2.706167 2.007957 2.715631 -1.421968 -4.775845 -1.071574 0.757185 -3.331110 2.637978 -0.640482 2.918758
േ 0.135784 2.166634 0.172898 -0.842946 -2.112985 -1.048801 -1.691002 0.316789 0.447125 1.199788 -1.074694 -0.104409 3.624420 0.517894 -0.141331 0.174617 -2.536618 -0.681599 3.477251 1.898528 0.768656 -0.114566 0.714361 -1.862017 0.725402 -0.649335 -2.177358 0.431172 -0.921972 1.256226 -0.643617 -2.695306 1.628303 0.539978 -3.092853 -1.692471 0.520460 0.957752 0.092159 1.398883 0.449740 0.292796 -1.816468 -2.415504 -0.068203 0.921844 1.006069 -1.021581 -0.818729 1.301883
ർ 2.815640 2.001561 2.149574 -0.026652 -1.004072 0.797635 0.442012 -0.622745 -0.098233 -0.335577 -0.382908 0.660879 0.584944 0.004704 1.064577 -0.739228 -1.690688 -0.450504 1.149419 -0.838984 -0.484755 0.727255 -0.701146 0.148179 -0.539164 1.156252 0.987876 -0.562209 1.134682 -0.345702 -0.793083 -0.111818 0.157857 0.431674 -2.115345 2.044902 -0.401640 -0.756067 0.839351 -0.066530 0.529637 -1.154455 -2.483808 1.507473 0.768950 0.799412 0.483547 -0.547237 1.092222 1.072180
ോ 0.043872 1.466183 -1.556330 1.292264 -1.870847 1.021210 2.076652 1.648390 0.443111 -0.807206 -3.067831 0.873413 -1.553850 -2.003277 0.360492 -2.264699 -0.000859 -2.365718 2.458958 -1.381184 -0.079732 0.806078 0.324082 -1.077583 -0.430417 0.593789 -1.171635 1.115279 1.174093 1.024644 0.488215 1.439373 -0.739972 -0.431050 -1.765788 -0.545088 -0.690992 0.252337 -1.445689 0.008543 0.454605 -0.136503 0.175611 -1.017368 0.762428 2.389854 -0.056313 -1.113131 0.376104 -0.268499
ൽ 1.143197 -0.609989 1.106282 0.915670 -1.127491 -0.720252 -0.147706 -0.587217 -0.462710 -0.615723 0.508255 3.482159 -0.664908 -2.175515 0.219204 0.072428 -0.536666 0.518394 -0.054511 1.867183 -3.179117 -0.273436 -0.671680 1.149408 0.391953 -1.891157 0.218856 1.028363 0.231653 1.168719 0.665592 -0.116365 -2.216853 0.123498 -1.416347 0.257457 1.743117 0.663946 0.066658 0.824112 -0.354326 -0.720708 0.455298 -1.050233 1.051800 1.301181 -1.330481 0.761292 0.472526 0.806634
ദ -2.062134 -0.040942 -0.660064 0.627794 4.179135 2.402094 -0.543494 1.819677 -3.018970 2.999554 1.234689 0.740972 3.887279 -2.542356 -0.229869 0.625130 -1.002707 -0.710166 -0.380392 1.242389 -1.136074 -1.021055 2.356083 1.051271 0.728718 -0.093242 0.417946 -2.213400 0.457351 -1.306506 -0.628177 1.053902 1.164577 -0.653207 -0.069600 4.628151 -3.394518 1.025795 2.263176 1.157620 -0.480697 -0.685324 -2.306458 -4.463654 0.774824 -0.090197 -0.365635 0.442217 0.695151 3.412571
അ 0.116324 -0.199789 0.296398 0.009159 -0.697667 1.858679 0.887359 0.761364 -1.544786 1.268771 -1.180742 -0.534863 1.751095 0.485170 -0.527266 0.393039 -0.202593 0.322060 0.085347 0.241652 -2.242357 -0.056223 1.254928 -0.658904 0.622391 1.385135 0.373691 -0.628952 -0.531297 -0.389707 -0.653227 -1.024268 0.511751 0.390888 -0.914065 0.881805 -0.643475 0.930139 1.110336 -0.192771 0.873060 -0.857019 -2.087860 -0.662375 2.821904 -0.107760 -0.412537 -0.394449 2.386542 1.304600
ീ -0.207925 3.243566 -0.016052 -0.460620 -1.239213 -0.094345 1.165446 0.046625 0.244622 0.681121 -0.386162 -0.046268 1.444057 1.307367 -0.979404 -0.539007 -1.079162 -0.214007 1.532980 -0.162366 1.331943 0.558612 1.036488 -0.349864 0.287352 -0.282455 -0.578858 0.370007 -0.641010 2.001138 0.662858 -1.954775 1.029784 -0.454506 -2.325920 -0.194328 0.335509 -0.486647 -0.897490 -0.849433 -0.461577 0.476687 -1.094528 -0.958886 0.954065 2.432428 -0.218114 -0.710930 1.682362 1.430963
ശ -1.591767 -0.223694 2.347397 1.615972 0.336004 0.564759 -0.954051 -0.453969 -0.311849 0.528758 3.535909 0.589521 2.747042 1.186330 -0.789673 0.377452 -0.407255 -1.784405 -1.490077 0.269304 0.748111 -1.744478 1.289524 -0.034110 1.101463 0.948970 0.752996 -2.124865 -2.843216 0.464279 -2.023356 -1.946853 0.713632 -0.257600 -1.204875 2.118469 -0.269755 2.007052 1.922304 0.482680 -0.977550 -1.391459 -0.306353 -3.793542 -0.456049 -1.194826 -1.481305 -0.296167 1.585971 2.924651
ഗ 0.444683 -0.164444 1.509696 1.311553 1.265137 -0.234461 0.484329 2.510895 0.433884 2.688438 0.900171 -0.975683 1.135209 -1.879224 -2.219898 -1.375125 2.110290 -2.677384 -2.590705 1.825111 0.083124 0.673809 0.109697 -0.230698 0.804274 2.587753 1.988269 -2.002424 0.710335 0.361108 0.589065 0.978179 0.975168 -0.122785 0.307827 0.995913 1.657784 -1.672837 -0.492764 1.173286 2.457743 -0.026119 -1.350014 -2.834915 0.993712 -0.791080 -0.723149 -0.395438 -0.266111 -1.053870
ഷ -2.117477 0.623847 0.231765 2.979064 1.963266 1.420549 0.843464 -1.911988 -0.558231 1.477818 0.758653 2.265644 -0.257600 1.252092 0.415671 1.058646 2.243050 -1.401085 -2.784307 2.125963 -0.826661 -0.963563 -1.308035 0.494843 -0.795697 0.839311 0.555166 -2.626367 -1.442472 -1.378227 1.512678 0.573407 0.504538 -1.604740 0.392592 2.692568 -2.536725 1.705652 0.146054 -0.285344 1.750522 -0.528964 0.567126 -3.290159 -0.360137 1.782637 1.003634 0.273326 1.242963 -0.073631
ൂ -1.647526 0.954914 -1.326823 0.775996 -1.042056 0.058652 2.797941 0.141392 -0.896309 -0.884695 -2.439120 1.237770 0.217637 0.098840 -0.408109 0.120436 0.195569 -0.297643 0.148849 1.562706 0.489049 0.110476 1.082658 -1.181710 -0.626524 0.552419 -0.624972 -0.377038 -1.405305 0.537113 1.622198 -0.150124 -0.819866 0.420328 -0.278570 -2.587290 0.379972 1.053168 -1.775142 0.033917 1.398796 0.395280 -0.624617 -1.139897 1.651468 -0.208718 1.466636 -1.446405 0.496874 -1.663481
ൻ 0.074527 2.758645 0.484179 0.964451 -0.664472 -0.218580 2.940725 -0.509651 -0.481562 0.446871 0.720645 1.005829 0.996534 -1.756600 0.579405 -0.141759 -0.847718 -0.874257 0.273491 -1.021299 0.000669 1.050484 -1.798179 0.204311 -0.556073 1.602770 -1.222006 -1.021296 1.030757 0.045509 1.248859 0.744038 0.167477 2.257027 -1.977694 -0.420461 0.003902 -2.210253 2.341940 -0.024732 -2.785411 -1.502788 0.059561 0.927882 0.754876 1.049917 0.140812 -1.035199 0.327179 -0.170802
ജ 0.109878 1.170825 0.995814 0.856181 -0.648819 0.856668 2.192185 1.109531 -0.960721 2.959098 3.885115 -0.572810 -0.490497 -1.071715 -0.128599 -0.178181 -0.398828 -0.017488 -1.053623 0.236422 -0.241953 0.262696 -0.782176 -0.510976 1.797322 1.550919 2.146017 -2.173468 -1.177477 -1.156511 -2.195101 -1.914155 -0.408207 0.670743 -0.372929 0.437076 0.037140 -1.448748 1.135154 1.338328 2.468163 -0.546544 2.067655 -1.197715 0.780941 -1.568834 -3.487784 0.322854 -1.505960 -0.225186
ൾ -2.076303 -0.277130 2.165904 0.122259 -2.453718 -2.100953 -0.109481 -0.474954 2.951297 -0.332097 -0.944485 0.037720 -0.843760 -1.864235 -2.432230 0.400095 -0.365167 -1.958608 -2.374805 5.270353 -0.102032 -1.727751 -1.483527 -2.608839 -4.065297 -0.046213 1.084554 -0.570917 2.330550 0.454218 -0.590376 3.059411 -0.086540 -0.718257 -1.707786 0.677321 -0.271492 -0.044933 4.071338 2.760134 1.707328 0.087188 -0.966013 -0.131075 -0.797988 1.970654 -1.281355 -1.316525 3.175129 2.946689
എ 1.274946 0.257304 -1.385240 -0.786204 -1.543161 1.892452 2.088868 -0.070171 1.947613 -0.508516 1.069902 -1.694724 -4.691875 0.435897 -1.416688 1.796244 -1.433315 3.152428 -0.792867 0.341533 0.248935 1.621562 -2.955159 3.190283 -2.358419 -1.546117 -0.423075 2.211935 -0.004922 -1.598798 1.801212 -1.785082 1.096075 0.941937 1.381825 -1.813523 0.181486 -2.215954 -1.669337 -1.484601 0.993789 -2.165535 2.617203 1.691985 -1.027015 -2.624012 -2.031311 2.244934 0.954295 0.301429
, 0.238541 -0.170329 0.305887 0.744771 0.019739 1.094578 -0.169779 1.630094 -0.153497 0.250043 -0.346059 -0.748568 -0.602618 -0.044924 0.585643 0.420590 1.084416 -1.219556 0.657126 0.066480 0.310620 0.239850 0.022603 -2.044903 1.818097 0.068693 -0.829207 -1.221194 -1.188795 -0.841208 0.249486 2.089939 1.222376 -0.681679 -1.666762 0.742883 2.110075 -0.742568 -1.503408 -0.984752 0.366615 1.290864 0.285483 -0.426376 -0.529504 0.962600 0.030478 -0.152454 -0.036924 1.461218
ധ -0.040666 2.250654 1.006703 -0.779452 -1.480842 0.903806 -2.422221 -0.746409 -0.849166 0.306300 1.499401 2.411860 3.336339 2.494056 -0.477567 -1.503688 -2.226964 -2.281443 -2.811275 -1.110468 1.342023 -0.919422 1.493167 1.425518 0.205382 -0.272983 -0.297406 -1.341548 0.692703 0.864934 -1.448807 -1.967800 0.274526 -2.369794 -0.044313 1.015061 1.640964 1.328792 0.259497 2.036824 -0.796558 -0.774789 -0.965473 -1.915011 -0.696186 -2.755480 -0.340192 1.231187 1.960480 -1.632457
ബ -0.054901 -0.242640 -1.865606 -0.647288 1.321338 3.321773 -0.517692 2.336279 -1.519535 1.848622 0.606890 -1.053205 0.568793 -2.763681 -0.697923 0.102319 -0.263612 0.029788 0.565448 -1.062686 0.775393 1.959619 0.207680 -2.461869 -1.488167 0.960279 -3.003942 -1.414953 1.673438 0.027923 0.258949 0.872903 3.208035 2.401462 -0.243785 2.028982 0.291586 -0.088735 1.440269 -1.100618 0.220179 1.270159 1.420051 -1.885821 2.343540 -0.061443 -0.977530 -1.332712 -1.237534 -1.264114
ഹ 1.583364 -2.224264 0.522933 -0.642203 0.957595 0.779434 -0.527023 0.403814 0.192431 0.768500 3.065428 3.836262 4.027360 0.867636 -0.040665 -0.562526 -3.169537 -3.640689 -4.032728 -2.858708 0.620095 1.251297 -1.898082 -0.498821 1.162349 2.611670 -1.030169 -2.537678 1.012521 2.384888 -0.184802 -1.615316 2.723318 -2.081516 0.027554 1.221226 1.739597 0.289645 -0.427896 1.004704 -1.734429 -1.669370 -0.606935 -0.939893 0.296556 -0.369067 -0.889843 -0.365881 1.953389 1.436478
ഭ 2.413966 1.096542 1.587303 -0.629810 0.515710 -1.978401 -1.130861 -0.395126 -1.091276 -1.786002 1.341608 -0.273849 0.766867 3.355658 -2.780658 -1.551373 -0.010735 -3.906475 -1.015423 -0.938381 1.062358 0.547168 0.982781 0.457125 0.510132 0.130305 1.869169 1.126583 -1.352121 2.258183 -0.134108 -2.473470 0.162132 0.215618 -3.274370 2.359344 0.319666 0.874259 1.466804 0.845019 -0.097798 1.547041 -1.585774 -0.007138 -0.641550 0.216970 -2.473407 1.742051 -0.799893 0.126200
ഇ 2.138096 -2.106788 -1.355223 -0.243408 -0.304421 1.890555 0.014729 0.364932 0.680090 0.097616 1.295612 -0.357119 -0.165688 1.287548 0.162246 -0.470193 -2.708395 -0.740323 2.007501 -0.650108 -1.444799 0.576357 -0.514996 -1.088218 0.393401 -0.764063 -0.596741 1.529886 -2.323226 -0.159140 2.302971 0.094245 1.708586 -0.021774 -0.992446 -1.895297 -1.025277 2.175570 -0.069625 0.017663 0.845974 -2.216599 0.691831 -0.321618 1.827191 -0.356461 -1.365145 -1.090553 -1.149887 -0.277319
ആ 1.484673 1.081602 -1.597021 -0.353094 -0.578966 0.453889 1.295452 -0.620634 -0.817911 0.395438 -2.949693 -0.427345 1.785401 1.360263 -0.181618 0.833111 0.566882 -0.156845 1.299477 1.596690 -0.016332 0.563204 -0.334571 0.427351 0.121844 0.023001 -1.060959 0.129278 -0.486081 0.554724 -1.266067 -2.010558 2.188739 -0.528426 -0.219625 1.277393 0.176194 -0.919029 -0.294699 1.027604 0.566571 0.435107 -0.430724 -2.831093 1.794168 -0.284042 0.609205 0.750612 0.785162 0.937272
1 0.854515 -2.328912 -3.828586 -1.233454 -0.549846 -0.638240 -2.161309 -0.679320 -1.927614 -2.260754 0.544851 -2.511238 -0.515547 0.962919 1.555170 0.283135 1.835409 1.345975 2.548996 -0.607069 -3.531971 -1.143845 -2.840540 1.833556 1.771344 1.571317 -1.068254 3.662816 1.425710 2.574479 -2.067048 1.614904 -0.678786 1.767057 1.908555 1.754129 0.607159 1.799443 -3.409268 -0.013052 -0.194643 -0.485930 3.812033 1.738226 -4.258543 1.873198 0.081031 -1.215982 0.086080 -0.178223
ഡ 2.307119 0.192731 -0.764294 1.853038 -1.684055 0.127685 3.826726 0.593456 -1.187389 1.744615 3.285744 0.910118 -2.361434 -1.270526 2.460912 -1.469770 0.439366 0.697071 -2.300086 -1.478738 0.904442 3.581240 -2.066304 -1.619354 -3.168883 0.743715 -2.658490 -2.715701 -0.660118 0.021813 2.613211 2.492923 4.414031 -0.028728 -0.143334 -1.160082 0.538242 -2.662360 -1.834536 -0.605316 -0.135340 -0.933776 1.219351 -0.240271 0.898804 0.030865 -0.973709 -0.364140 -2.876161 -1.185803
ൊ 0.583893 -0.201337 -1.140690 0.884541 -2.833977 1.117333 0.210752 -1.045248 3.347301 -3.714517 -1.967864 1.233308 -2.082365 0.037951 -0.614574 0.920131 1.130155 0.403152 2.151278 0.873978 0.975153 -0.441941 -1.518539 -0.533791 -1.028503 -1.408553 1.580853 1.231739 -0.307749 -0.677191 1.958606 0.120395 0.966069 -0.614166 -0.008041 -2.327843 -0.340853 1.584342 -1.707197 -1.751987 0.187720 1.362453 -0.519768 1.211605 0.360076 -0.033030 0.077367 -1.763149 0.734063 -1.832234
ഞ -1.389351 0.145456 -0.766943 -1.835990 -3.434489 -1.276363 2.933503 1.917961 4.001007 1.274301 -0.051324 -1.247296 -3.037092 0.642969 1.215635 0.759822 1.467060 3.035915 0.734400 -0.838086 1.223408 -0.981539 0.203525 -0.582834 3.750782 -1.137538 2.115279 -0.187676 -0.632008 -1.186373 0.389898 -3.913600 -1.906611 -0.704897 2.813583 -0.057033 -2.209182 0.803044 1.483384 -0.230525 0.249567 0.358057 1.209645 3.402546 -1.903008 -1.142194 -1.423200 -1.899678 -0.015220 -1.455502
ഴ 0.015125 -0.553946 2.575668 2.334891 -2.651346 0.406507 -1.956491 -2.008769 1.897634 -2.482606 0.657162 0.583470 -3.154843 -0.361345 0.507506 1.378491 1.345611 2.409102 -2.323694 0.158053 -1.353462 -0.766182 -1.220084 0.373909 1.239400 -0.738859 3.006353 0.344527 -0.307122 -1.829156 1.056719 1.352110 2.217446 -1.875862 2.289506 -0.593814 -0.486407 0.209593 3.168847 1.126368 0.687115 -0.833406 1.505235 1.856873 0.241282 -1.996358 0.747176 -1.351437 -3.292960 -1.965458
ഥ -1.918704 0.598089 1.518214 -0.553367 1.732007 0.405308 0.039903 0.729145 -0.462530 -1.186061 1.372226 1.015176 -3.439043 2.372131 -3.976810 -0.472993 -2.300957 -1.649808 -2.583622 -1.110866 0.895832 0.280458 1.644997 1.476895 0.256185 1.075813 0.056119 0.711185 -0.487355 0.943160 1.298660 -0.386519 -0.696539 -0.428560 0.254107 0.446344 1.176351 -0.138029 -1.256439 3.863614 0.453592 1.378037 -2.082789 -1.630811 -0.832997 -3.268927 -2.481248 2.175759 0.878877 -0.212905
ഉ 1.849962 0.047478 -0.835836 0.514119 -2.405237 1.410873 -1.553650 -0.641672 1.209101 -0.425410 -2.972522 -1.587183 -0.575046 3.630064 2.228031 -3.260710 1.169489 -3.365906 0.446713 -2.030854 -0.381685 -1.111891 2.173904 -0.128629 -1.697017 -1.432402 2.319458 -0.348089 -0.753184 0.269369 0.106487 0.535809 1.467503 -1.622205 2.057005 -0.184345 -0.820069 2.030974 -1.625843 2.633878 0.710523 0.137752 -4.238981 -1.246044 3.074366 -1.462190 0.370836 0.272498 -0.340053 -0.761622
ഒ -0.718750 0.694712 -1.495458 -0.284735 -0.371514 0.257368 -0.466054 -0.108577 2.365955 -0.421106 0.316314 -0.529610 -0.228194 0.269400 -1.180292 2.595900 2.857938 1.310508 -0.238516 -1.460591 0.790376 0.177990 -0.643944 1.035820 -0.112628 -1.658828 -0.044041 0.204177 -0.198151 -0.773974 0.436394 0.262057 2.084106 -0.629102 0.472563 -1.100996 -1.435190 -0.166524 -0.795876 -2.503626 -0.130391 -0.057952 1.955834 1.031121 0.052418 -1.216959 0.182802 -0.325567 2.808131 -3.178315
0 0.938137 -2.339742 -2.783338 -0.527415 0.391626 0.192032 -1.576143 -1.355700 0.746871 -0.939128 0.248715 -1.593898 -0.340978 -0.124949 1.756365 -1.063904 -1.363543 1.820938 1.990080 0.444555 -1.275560 2.510316 -0.131103 1.761318 -0.829798 0.793025 2.786066 2.239105 0.545365 -0.735165 -1.657074 1.421250 -1.042397 1.521155 2.207878 -0.360191 2.727121 -0.695423 -1.066849 -0.667799 -0.994734 0.584460 1.516475 -0.705374 -2.969659 2.220491 2.654673 -2.180816 -0.400253 -1.914270
ൈ 0.899901 2.397244 -0.347022 0.167709 -2.168252 2.743991 0.906004 0.172564 -1.145799 1.133036 -0.676792 1.235654 1.022095 -0.489601 0.694118 0.559538 -4.473200 0.632186 2.725216 -1.561544 0.064681 3.171523 -1.811475 -3.514592 1.263474 0.739703 -1.559483 0.134913 1.427807 0.138024 -0.394478 0.780871 1.442355 0.609909 -2.069254 -0.221093 -0.473826 -1.800395 -0.668241 -0.347600 0.343455 -1.182841 0.358240 -0.994617 1.086106 1.982977 0.250938 0.034015 0.627041 0.364704
‌ 1.713906 0.983041 -0.067020 0.785510 -0.226649 0.046438 3.815055 0.079833 0.850640 -0.894262 0.158620 0.344483 -1.917682 -0.035316 0.917662 0.446291 -0.646652 0.128857 1.076460 -0.455105 0.521865 1.243816 -1.425410 -0.190741 -2.113660 0.436291 -1.202253 -0.564955 1.061008 -1.228850 1.688356 -0.060124 1.706662 1.085336 -0.638027 -0.479323 0.201840 -1.754399 -1.378595 0.185197 -0.716047 -0.859134 -1.146210 0.048731 -0.312151 0.849534 -0.613895 0.290562 0.825748 0.926738
ഫ 0.845841 -0.014589 0.710597 1.035950 -2.057684 -0.436928 2.286705 -0.201047 0.933042 1.711192 3.373796 0.454031 -2.062931 -0.097678 1.758481 -2.196810 0.345495 0.295004 -1.184908 -2.806378 1.658103 3.797168 -1.651422 -2.719822 -1.023672 1.752494 -3.520433 -1.476873 0.157665 0.020224 2.133816 1.529712 3.578693 1.722468 0.132457 -2.195348 1.831378 -2.809359 -0.651194 -0.264623 -0.215725 -0.387639 3.204973 -0.212565 -0.305119 0.090239 -1.849047 -1.311991 -2.064235 -1.756178
9 -1.492966 -1.760598 -2.387903 -1.339526 0.000745 -1.207425 1.607626 -0.342535 -1.047700 -1.376784 2.348125 -2.793437 0.986054 1.117655 2.687427 0.817490 -1.044704 2.031430 0.540860 2.349113 -2.952433 1.938170 -0.471847 1.220545 -0.146363 -1.087694 1.076581 1.396104 -0.747573 -0.242645 -1.260392 1.284592 -0.559248 1.302109 1.856483 -0.930624 1.145917 0.842928 -3.319405 0.702791 -0.199111 0.272261 3.103759 0.149951 -1.612390 -0.011367 3.809685 -1.840558 -0.336702 1.131720
- -0.067730 -1.811731 -1.003431 0.198386 2.557790 -2.501362 0.711837 -0.177801 -1.310967 0.178971 1.201418 -2.556459 0.633848 0.275578 1.996833 -2.256971 -1.152334 -0.026913 1.398997 -1.011578 -0.570944 -0.656738 0.352504 -1.834298 2.066593 -0.149681 -2.569748 -0.703818 0.695717 -0.903728 -1.510955 4.069674 2.240522 0.832820 -0.118924 -0.518421 3.518127 0.370987 -3.001182 -0.847550 -0.339584 1.564707 2.557406 0.677036 -2.195427 2.034211 0.821253 -0.216325 0.038750 1.184464
2 -0.238761 -2.105825 -2.892109 -1.867495 0.858628 0.849593 -0.339237 -0.360183 -1.584721 -0.509149 0.882363 -2.811204 -0.828098 -0.413895 0.543960 -0.663400 -0.961168 1.509838 0.611971 1.102670 -1.171336 0.798369 0.748167 1.935078 -0.769754 0.001327 2.399073 4.052702 1.645279 -0.686606 -1.103891 2.050554 -1.856507 2.775866 1.485459 0.534582 0.901375 -1.225801 -2.308143 -0.597486 -0.331054 -0.072544 2.117178 1.301103 -1.138275 1.102794 1.709846 -0.485619 0.054333 -0.450516
ൃ 0.547182 1.566388 2.784310 -0.588552 -0.215204 -0.982883 -1.128169 -1.204640 -1.264882 -1.285920 -0.518577 0.361045 3.986936 1.248860 -0.182741 -0.072628 -2.381132 -1.527999 1.966092 2.020411 -1.342968 0.606755 2.149573 1.299400 1.120852 0.964819 0.264707 0.898309 -2.969051 0.679041 1.375173 0.319435 0.489112 0.735664 -1.744274 2.691468 0.689667 2.201596 1.920376 0.821260 0.204852 1.142382 -3.016279 -0.950290 0.734214 0.612391 -1.215523 -0.265291 -1.810370 2.952310
( -0.932168 -0.189230 -0.556504 1.680487 1.728552 -1.463106 -0.721608 0.564197 -1.502586 2.324443 0.372677 -2.516009 0.243485 -0.533712 1.504184 -1.737212 -0.491955 -0.725632 0.390606 -0.210728 1.310777 -1.207318 0.674987 -4.105073 1.739154 -0.967355 -2.435604 0.690898 -0.476802 -0.922756 -0.575982 1.572490 -2.072010 -1.018256 1.270631 0.431880 4.434701 -3.512794 -1.786592 -3.733649 -2.394884 -0.238898 -0.214241 1.754710 -0.804997 3.127030 1.956349 3.076933 0.706058 3.960445
) 1.113643 0.604472 -3.048090 -2.130382 -0.047099 -1.438019 -0.934349 0.656234 0.332341 -1.645644 -0.047282 -0.566248 -1.099087 0.146479 2.418014 0.211542 0.422799 3.403895 1.552386 0.074969 -1.197953 0.237495 -0.842707 2.514877 -2.677057 4.820156 -0.411906 -1.605757 0.843273 -0.348908 0.607479 -0.649315 2.402101 0.047080 -1.219930 -0.816490 1.500517 0.078405 -1.825406 2.085603 -0.215469 -1.835007 2.536057 -0.463685 -0.962364 1.068117 -2.339031 0.060027 -0.176950 0.930071
ഈ -0.077111 0.801638 -1.672532 -1.054374 -1.475774 0.326152 1.793395 0.315947 1.337515 1.054561 -1.240031 0.045404 -2.093505 -1.547566 0.340356 1.606353 -1.574173 1.716195 0.384811 -1.514555 2.092646 1.535651 0.717992 0.812576 1.103312 -0.559788 -0.270373 -0.301797 -0.589985 0.561518 1.013280 0.897964 -0.276668 0.566216 -0.078214 -0.722679 -0.435678 -0.964013 -1.754623 -0.439061 -0.479320 1.159782 -1.247350 -0.188393 -0.123577 0.450258 1.607698 -1.890019 0.503888 0.034113
ഖ -1.807882 0.648028 -1.350940 0.982590 1.734096 1.456635 2.282534 0.169934 -0.714857 -1.408863 1.467421 2.425348 1.233183 -1.198904 0.064650 0.127290 0.783469 -2.190197 -2.939976 -0.825568 -0.062004 0.393746 -0.578319 1.719723 0.270889 0.691562 1.777847 0.838723 -2.616288 0.106189 -2.889543 -0.918764 0.927845 -1.033897 -1.178027 -0.663591 -2.111630 0.560090 1.785265 0.187647 0.621542 -0.901569 0.848717 -1.439608 -0.214775 1.160838 0.807674 0.645820 0.873086 2.655087
a -2.183807 -3.125714 -5.414010 -2.254991 2.618749 -3.990631 -0.669456 0.856351 1.639015 -1.326167 0.043930 -0.304985 2.169327 -2.570084 1.429130 -1.380810 1.080583 1.884095 -0.372663 0.428932 -2.219333 -4.812376 1.811850 1.344585 -0.946151 1.165525 -0.909468 2.595468 1.055779 -2.226633 -1.746251 -1.490381 -1.163244 -1.970551 -1.650407 1.166698 1.926257 -0.711123 -2.343702 0.230672 -1.807621 0.330863 1.965577 4.863908 2.596199 0.605517 2.924223 1.861530 -2.387709 -0.562632
e -1.800662 -2.856812 -3.916079 -1.657803 2.693193 -4.472376 -0.887517 0.238569 2.329256 -2.591565 -0.851515 -0.321374 2.748820 -2.816624 0.804577 -1.378065 -0.286601 1.094660 0.368974 0.912005 -1.035763 -3.643964 1.515294 0.951545 -2.165050 0.517577 -0.646332 3.933176 0.250493 -2.066464 -3.459944 -0.811522 -2.721883 -2.158027 -2.099620 0.596651 1.994681 -1.204473 -3.519879 1.577134 -1.616815 0.163010 2.089310 5.314378 3.017229 -0.108524 2.402006 0.929645 -2.602361 -0.688087
" -0.573398 1.305902 -1.575536 0.132162 -1.625013 0.739566 -0.327096 1.240255 -1.247315 0.572035 -0.391176 -0.994308 0.743962 -0.489251 1.236128 -0.004590 -1.261012 -1.517477 0.268286 -1.239623 0.440172 -0.136219 -0.964428 -2.234907 1.034066 2.298639 -0.197320 -1.007594 -0.387585 -0.029814 2.024485 1.627645 1.022365 1.140393 -0.628771 0.622693 0.823651 -3.335819 -0.319062 -0.933674 -0.989087 -1.163818 0.951324 0.906355 0.532862 0.563443 0.160788 -0.008230 -0.133332 1.800437
8 -1.232690 -1.704010 -1.785149 -2.204704 0.318433 -0.973500 0.116824 -0.514006 -1.301495 -0.840034 1.827146 -2.309186 -0.000047 0.816612 1.844343 0.587377 -1.102775 1.641772 0.450036 2.387619 -1.987723 2.097532 -0.940436 1.394841 -0.169866 -0.235702 0.573023 2.567470 -0.374110 0.066442 -1.082924 1.224882 -1.400222 2.026695 1.787554 0.290997 1.118995 0.258254 -2.442915 -0.649266 -0.452832 0.305715 3.441744 0.556943 -2.172576 0.333075 3.354728 -2.077566 -0.399423 1.132212
ഏ 1.811924 -1.162507 -0.755410 -0.761056 -1.506739 -1.069692 0.591558 -0.572621 2.787028 1.936854 -1.051706 -1.237751 -0.155821 -0.569805 -0.870645 3.978841 -1.987741 2.368781 1.119839 -0.156989 1.823209 1.034088 0.488709 -1.564150 1.603806 0.743077 -0.970753 -0.843496 -3.753332 1.181430 0.570967 -0.217863 1.872113 -1.132633 -2.268885 -1.912445 -1.593315 1.887192 1.120328 -0.181337 0.870273 0.607377 0.548311 1.485003 -1.918640 -0.751483 2.437202 -2.847502 1.651124 0.610708
5 -0.403169 -1.853583 -1.876743 -1.734307 0.273305 -0.650593 -0.756775 -0.849538 -0.955275 -0.147619 0.909164 -1.961850 -0.428495 0.731848 1.683874 0.234768 -1.025349 1.488390 0.182269 2.296588 -1.626112 1.851175 -0.681776 1.523565 -0.614518 -0.082105 0.852866 3.330194 0.429348 0.155553 -1.185695 1.143596 -2.162058 2.531115 2.064500 0.904258 0.984240 -0.441358 -1.804751 -0.664124 -1.046309 -0.041607 2.965585 0.391140 -2.549629 0.554042 2.694879 -1.187686 -0.625942 0.161974
i -2.457804 -2.597922 -3.939477 -2.647140 5.064878 -3.464500 -0.941358 0.456825 2.564001 -3.012538 -0.704420 -0.919005 4.264219 -1.806580 -0.081110 -1.287227 -0.578207 1.214296 -1.782882 0.461378 0.855284 -3.406944 2.408694 0.776519 -1.789674 0.611238 0.224032 3.001132 0.143536 -2.407742 -2.084549 0.296083 -1.446739 -3.320237 -0.119226 0.292447 3.114835 -0.887030 -3.544418 1.056171 -1.567858 -0.191785 1.918162 5.114050 2.079034 0.084683 1.531425 2.020784 -2.101584 -0.298069
4 -0.947668 -1.921230 -1.898875 -2.214741 0.767044 -0.727597 -0.649761 -0.874155 -1.332047 -0.378517 1.038397 -2.612600 -0.920054 0.913314 1.057928 0.439305 -1.235274 1.523129 0.238397 2.323231 -1.230625 1.607651 -0.922784 1.159007 -0.390592 -0.124287 0.344497 3.339031 0.759908 -0.044926 -0.741026 1.145603 -2.330085 2.431582 2.399741 1.043847 1.021655 -0.273408 -1.614747 -1.069632 -1.145097 -0.007586 2.974519 0.402521 -2.565773 0.373499 2.877968 -1.275840 -0.489720 0.381195
3 -0.551619 -1.775355 -2.115198 -1.654335 1.190041 -0.143252 -0.599228 -0.831530 -1.001227 -0.157850 1.040026 -2.339606 -0.975190 0.572094 1.395262 -0.156403 -1.102850 1.414388 0.615884 1.827265 -1.034483 1.616959 -0.425649 1.373793 -0.521508 0.437405 0.715672 3.555838 0.662599 -0.273629 -0.952183 1.717152 -2.105574 2.925572 2.223032 1.012497 1.399691 -0.813387 -1.794992 -1.252391 -1.456302 -0.056360 3.064342 0.788118 -2.107122 0.346551 2.503919 -0.464334 -0.381803 0.103203
ൺ -0.023083 0.815638 0.495898 -1.402667 -2.806686 -1.959097 2.876524 -1.099040 0.701131 -1.663597 2.021749 -1.366466 -2.427935 0.124087 1.569732 -3.399354 -0.955786 -0.784106 -0.225362 -4.762309 0.569645 2.624859 -0.467786 -2.144365 -1.269592 0.794594 -2.291347 -0.932980 1.143035 1.087037 1.499689 3.826586 1.885873 0.256993 -0.911710 0.293072 0.068675 -3.026742 0.824442 -0.689057 0.840520 -0.656527 0.441753 0.220266 1.597435 3.756539 -1.233898 -0.881343 0.298453 -2.075084
ഘ -1.497333 -2.016839 1.938982 -1.878182 0.471202 0.793296 -0.738859 -1.632271 0.568741 -2.313127 -1.481294 -1.320074 -0.508079 1.486450 -1.970053 -0.893878 -1.091891 -1.228890 -0.923346 1.129170 3.184588 0.463138 1.368311 0.140942 -1.061836 1.624160 0.361682 -0.917212 -1.127397 -0.427389 1.488590 -1.027801 -0.277474 1.048689 -1.494914 -1.052373 3.866629 3.363592 0.121126 0.444821 0.872592 1.321631 0.338398 -2.592319 1.205382 -0.559115 -1.857873 -1.627273 0.884459 0.078673
6 -0.781598 -1.641591 -2.194739 -1.923733 0.651674 -0.539441 -0.502740 -0.905340 -1.114218 -0.911386 1.472949 -2.001505 -0.234836 0.985923 1.434858 0.261715 -1.095837 1.523907 0.349347 1.770188 -1.539004 1.793004 -1.028896 1.514852 -0.203590 0.035138 0.296055 2.860571 0.478619 0.465748 -1.193815 1.345476 -1.935121 2.303518 2.157150 0.674965 1.305518 -0.256899 -2.062066 -1.044000 -0.928432 0.190167 3.008708 0.850874 -2.097975 0.306560 2.557162 -1.044537 -0.299089 0.364862
o -1.319103 -3.165416 -3.666526 -2.258454 2.932731 -3.258456 -0.503887 0.843479 2.772890 -1.598382 -0.425685 -1.052006 2.690086 -2.773705 0.684294 -2.378077 0.382018 1.365169 0.385295 0.111660 -2.119796 -3.678441 1.701437 0.984492 -0.617043 0.791412 -0.024195 3.486266 1.922383 -1.479585 -3.942059 -0.741751 -1.657262 -1.989697 -2.293908 0.234541 2.424784 -1.377441 -2.166267 -1.054343 -3.007031 0.299696 2.336416 5.367743 3.687155 1.407043 1.374672 1.874930 -3.224469 -0.935769
n -1.535824 -3.347705 -2.317817 -4.388188 5.718595 -1.145795 0.205205 -1.702676 0.753836 -2.326192 -0.302724 -0.468981 0.215945 -1.438086 -0.588329 3.939800 -1.605785 0.653637 2.646119 -0.163773 -0.494234 -3.667490 -0.613811 -0.615708 -1.547892 2.068690 -0.256007 -2.617291 0.381271 -2.038138 1.612026 -0.415811 -1.568805 -2.282575 0.398727 2.064230 2.809298 -1.389557 1.129505 -1.552787 -2.928621 0.100113 1.212322 2.154773 -0.427627 2.790792 2.240277 2.459722 -1.859608 -0.355251
7 -0.979995 -1.657539 -1.843438 -2.005934 0.395553 -0.842528 -0.207187 -0.954012 -1.158613 -0.977665 1.677848 -2.161190 -0.240368 0.975762 1.227969 0.634036 -1.115865 1.356978 0.326783 2.372027 -1.717182 1.898818 -1.598852 1.370309 0.131352 -0.314043 0.384566 2.711976 0.412024 0.490194 -1.068913 1.174647 -1.746030 2.404949 2.290823 0.464034 0.905779 -0.019483 -1.923688 -0.766264 -0.695678 0.286038 3.003956 0.584798 -2.239799 0.200170 3.120839 -1.806183 -0.243172 0.912204
r -1.437201 -3.733938 -1.058736 -5.413083 4.445981 -1.875971 -0.420596 -1.766305 -0.056708 -3.845904 0.258597 -2.724776 -0.156109 -2.183250 -1.732197 2.805154 -2.625215 2.727307 0.057049 -1.732004 -0.456836 -2.300248 2.760754 0.955060 -0.220066 2.290742 1.402532 -0.973852 0.272062 -2.303875 1.726400 0.415158 -1.862148 -3.265375 1.798647 0.449994 2.699426 -0.841763 -0.594434 -3.986642 -0.978644 0.597301 0.343837 2.531573 0.643544 2.589734 1.245804 1.496053 -2.726887 -0.079749
t -1.500705 -1.273286 -2.494652 -3.676674 2.544874 -1.801544 -0.067714 0.597069 0.657675 -3.661465 1.253834 -0.938006 -0.598277 -1.184609 0.134451 1.661886 0.983965 3.062643 2.334615 0.120303 -0.907772 -3.709444 1.315258 -0.673531 0.243836 2.995422 -1.730111 -1.151370 -0.361794 0.363554 -0.922518 0.002582 -1.345421 -2.043416 0.707647 1.603828 2.420915 -0.985067 -2.380320 -2.164007 -2.401117 0.372268 -0.170609 4.397904 2.633265 3.160445 0.041775 3.442229 -1.932588 -0.037833
ഓ 0.437478 -0.035246 -1.086347 1.174518 -0.958472 0.865873 4.001701 -0.163828 1.277511 0.442156 0.540362 0.334063 -3.720518 -2.676276 1.926641 -1.830306 -0.100095 -0.470691 1.564292 -3.571093 1.736117 1.935694 0.095041 -0.648520 -1.152602 0.907060 -2.157930 0.226519 -0.178796 -1.037197 2.471696 2.205797 0.754310 -0.066914 0.093682 -0.972922 0.765148 -0.943664 -2.197350 -0.245346 -0.688616 -0.876719 2.823689 -1.539203 1.470775 0.608520 -0.038447 -1.964072 0.970093 -0.368824
s -1.959917 -1.849844 -2.708632 -2.838799 2.962177 -2.707539 -0.272065 0.573411 0.233162 -3.416392 0.973636 -1.777149 -0.189003 -1.201040 -0.703527 1.976827 0.032504 1.687777 0.944724 -0.243549 -1.781607 -3.165159 1.683630 -0.762607 0.068423 2.071587 -0.252335 -0.678910 -0.481301 -1.758620 0.055746 -0.700642 -1.244847 -0.288996 0.634573 0.009508 0.672424 -2.761073 0.219606 -2.707464 -3.317754 0.418634 0.257820 3.900370 1.327136 1.480628 3.641368 0.669618 -2.821745 -0.251793
l -0.623908 -3.985191 -1.419115 -5.293226 3.100070 -1.231328 -1.546538 -1.182155 -0.374935 -1.931579 1.159582 -1.056629 0.718074 -1.857884 -0.372146 2.525015 -1.472533 2.537922 1.708458 -0.693540 -1.306826 -3.396922 1.996398 0.401776 1.216573 2.508587 0.031543 -1.931421 1.249814 -1.877100 -0.790932 0.290009 -1.906136 -3.377306 1.504389 0.856203 2.547781 -2.182658 -0.684050 -3.919546 -1.634504 0.443167 0.003849 3.078651 0.197407 2.952174 0.917190 1.660087 -1.263788 -0.259657
ൗ -1.244640 1.004421 0.395334 -0.672710 -0.585230 0.055528 2.037705 1.234709 -0.648390 -1.065555 -1.718862 2.569850 0.827880 0.859615 0.295617 -0.641249 -2.641362 -2.035085 0.240340 1.176650 -2.273871 2.103449 0.939228 -2.035448 -0.737300 1.716963 -1.687194 0.962829 -0.071335 1.326052 0.106993 -0.094056 -0.242418 0.356627 -0.346146 0.770439 0.919001 -0.629612 -0.923028 0.388629 1.144869 0.147763 -0.527157 -2.093067 2.109381 0.383405 1.356380 0.661525 1.378772 1.537084
ഠ 0.401776 0.944448 1.267710 1.403264 -2.599421 -0.907687 -2.751131 -0.389551 1.034841 -0.450427 -0.739308 -1.330283 1.043773 -0.185535 -0.941570 -1.299315 2.032020 -0.873385 -1.523400 1.517256 0.643023 -0.747030 2.113196 3.810191 0.134940 -1.082906 0.737698 1.954097 -1.671601 0.329360 -0.083777 -1.261497 -0.664528 0.821056 -1.279061 3.387588 0.290742 2.609828 0.899257 -0.534915 -1.624885 1.032475 -1.323185 0.540635 0.660811 -0.610614 0.303259 -1.676647 0.046371 2.841569
' -0.117775 -0.589512 0.290983 -0.646197 -0.135849 -1.395656 -0.162521 2.091039 -1.531543 -1.391816 -0.181716 0.798131 -0.595623 -0.053476 0.014015 0.048036 -0.966088 -0.933626 0.686457 -0.708334 -0.372527 0.705396 0.864169 -2.458324 0.345515 0.421588 -0.882994 -1.031102 0.059878 -0.609489 -1.172526 0.832936 1.350697 0.981559 -0.105440 0.241506 0.889800 -2.872839 -0.678093 -1.443688 -1.798161 -0.884627 0.306060 -1.369896 0.895517 1.323015 1.225183 -2.240064 -0.421477 0.111768
c -2.663528 -1.223144 -2.026236 -3.327463 3.143482 -1.890350 0.751539 -0.689702 -0.119898 -3.170524 1.424605 -0.831682 -1.771210 -2.729068 0.823145 0.552436 0.624015 3.463257 2.160867 0.263198 -0.508710 -2.548924 -0.065540 0.237394 0.534213 2.624742 -0.685936 -1.035193 -1.697849 -0.902104 -0.125921 1.141586 -1.039884 -1.375641 -0.341820 -0.566127 1.285809 -0.890150 -2.101735 -3.195098 -2.187935 1.644170 0.404498 3.627332 0.908080 2.510430 1.978423 1.609694 -2.010267 2.229548
u -2.946995 -2.441706 -1.475169 -1.499682 3.827765 -2.974200 -0.376398 0.534403 1.037172 0.779783 -1.346289 -0.876126 2.570045 -1.092970 -0.631640 -2.103102 -0.131599 2.313913 -0.070484 1.269438 -0.649376 -4.097980 1.684258 -1.313372 -1.416283 1.092510 -0.543253 3.851335 -0.115383 -1.162391 -2.551303 -0.443238 0.178199 -2.366455 -1.348320 0.734422 1.679460 -2.595912 -3.352339 -0.424805 -3.577595 0.770263 2.055885 5.251604 0.448061 -0.956091 2.787678 2.141342 -1.792676 -0.167286
d -1.627076 -1.487288 -1.222006 -3.492830 3.353182 -0.334921 -2.133177 1.043702 -1.117219 -2.572749 1.117751 -0.877714 -0.226750 0.308599 0.901399 0.996292 1.321839 3.200994 2.239778 1.212014 -0.818372 -3.302830 0.719257 -0.509685 1.076364 3.329038 -1.039922 -0.820271 0.815181 -0.198276 -0.027452 -0.019188 -1.939518 -0.041212 0.281655 1.186498 2.948119 -1.684800 -0.449539 -3.673853 -3.982432 -1.127150 -0.680619 3.751406 0.710782 1.510501 1.231480 2.519531 -1.300697 0.807619
h -1.448054 -2.022446 -1.316023 -2.106614 2.890416 -1.033181 -2.044508 -1.651875 1.152852 -0.653565 -2.819408 -2.974743 1.946169 -0.661832 0.382352 1.401843 -0.613724 3.157423 1.198143 0.313611 -1.196748 -3.307767 2.824162 0.130398 -0.519907 0.795340 -1.657978 -0.567456 -0.077847 -2.457624 -0.391504 1.898029 -0.533581 -0.479475 -1.172391 -1.161902 2.531236 -1.918284 0.276284 -3.159335 -3.185555 -0.081185 2.840255 3.634617 -0.686047 1.719490 1.655139 1.473250 -3.147719 -0.075016
m -1.493032 -1.123783 -2.064429 -3.010381 2.982734 -0.843220 -1.991310 -0.771767 -0.656370 -2.008113 0.816734 -1.281804 1.141970 -0.885645 -0.257494 0.791717 0.568528 3.614826 3.524140 0.436589 -1.263269 -2.701428 0.780604 0.210089 0.646147 1.576234 0.393070 -0.845161 -1.125225 -0.706993 -0.637925 0.316526 -1.599530 -1.303756 1.047968 0.415598 1.352654 -2.644647 -0.321132 -4.243430 -3.116390 0.326731 0.582307 3.672232 0.066571 1.584367 1.329705 1.942971 -1.561431 0.125005
ഐ -1.641731 4.179211 -0.087389 -2.315021 -1.583181 0.153945 1.087163 -2.158319 1.053185 -0.425002 -0.582648 -0.903517 -2.136652 -0.123999 1.400256 -1.001922 -1.016373 4.320340 2.377499 3.613159 -3.548076 2.962578 -1.934608 2.902893 -2.463150 -0.320351 -2.311145 2.563733 -0.654280 -0.052341 4.453898 1.826336 -1.260937 2.555851 -0.457613 -1.439586 0.803118 -3.563924 2.375347 -0.168307 -0.290537 -0.911597 3.199792 -1.741927 0.333075 -2.377192 -0.839157 5.367300 -2.268698 -2.377795
% 0.589789 -0.583232 3.333405 -1.260635 0.951347 0.958078 -2.688768 -2.984570 -1.937110 2.961653 1.743547 -1.672583 -3.519192 0.650684 0.951411 0.758876 3.448895 4.017612 3.289087 3.413661 -0.060361 -1.248483 -2.792808 0.129774 3.940904 0.736589 0.426191 2.330593 -0.347092 0.745872 -2.518718 2.259480 -0.996321 -0.112108 4.519611 -1.719242 0.987300 3.739328 -4.284833 -3.785222 -4.006294 3.268669 -3.504396 0.245445 -6.469006 -0.179639 0.736877 1.023327 0.402193 2.245224
: -0.398637 0.282095 -1.132774 -2.688583 0.561460 2.688728 -1.487452 1.494938 -1.731170 1.874146 -0.847312 -2.289029 1.158583 -0.195358 0.646747 -0.926294 -0.172602 -2.601224 2.121810 -1.813660 0.280106 0.147061 -0.685239 1.725538 1.524514 1.152618 1.519331 -0.731249 -1.412387 1.399070 0.993462 1.092298 -1.561159 1.209400 -1.809490 -1.536928 0.632669 0.258965 -2.842456 -1.806336 -2.061436 -1.045566 1.868152 0.467958 -1.299796 1.381012 0.311502 -1.728866 -0.732040 2.768166
p -1.764178 -0.682580 -2.902557 -2.732249 2.878709 -1.539642 -0.574892 -0.485526 -0.271368 -0.969797 -0.720843 -0.570906 -0.016533 -1.037347 0.908894 0.806286 0.807479 3.247941 4.075265 0.416682 0.327720 -2.555219 -0.114540 -1.082220 -0.058557 0.719747 -0.642020 -1.501957 -0.874375 -0.863390 0.013945 1.837114 0.163101 -0.877247 -0.194321 0.208370 0.382915 -2.371961 -2.329759 -3.478952 -3.039455 1.108288 1.935061 3.876566 -1.006431 3.514006 0.483442 1.376862 -2.524794 0.881084
g -1.714822 -0.628548 -2.594443 -1.737448 3.120694 -0.432513 -2.053151 1.253330 -1.124141 -2.699754 0.539214 -1.209419 -1.455489 0.249290 1.527608 -1.487569 3.081179 3.809000 2.687471 1.474908 0.330646 -2.828936 -0.086408 -0.844883 1.894562 2.624594 -0.523744 -0.359862 0.054232 -0.937676 0.515618 0.438857 -2.825946 0.809406 0.351025 0.109538 2.382967 -2.111006 -1.659014 -3.275839 -3.687705 -0.979045 -0.753154 3.914851 1.421992 0.824770 1.092389 2.440105 -1.898204 0.641193
y -1.670382 -1.453383 -2.576243 -0.610441 2.098316 -2.439344 -0.251423 0.091516 -0.542699 0.653234 -1.584574 -1.804919 2.612388 -0.887929 1.011349 -1.818141 -0.415658 1.211970 0.675812 1.858485 0.728032 -2.468082 -0.289862 -0.800785 -0.384625 -0.213535 -0.185741 1.324160 -1.437380 -1.435363 -1.955492 1.015281 -1.684141 -0.470364 0.080506 1.321097 1.446602 -4.086428 -2.271214 -1.156274 -4.252901 -0.214665 0.730185 3.800878 -0.342324 -0.837506 3.229332 2.104729 -1.481075 -0.191569
B -1.203833 -0.902178 -0.594981 -3.444970 1.082571 0.335074 -2.734786 -0.909522 -0.546658 2.733909 -0.585612 -1.546887 -1.699004 -0.878385 1.542156 -1.236679 0.491108 3.208478 3.031592 1.763531 1.295864 -0.886052 -0.639181 0.796269 -0.189365 0.303846 0.770707 1.967495 0.126864 0.268908 -0.593116 2.875764 -2.115916 2.071996 0.436569 -1.562404 0.989331 -1.896463 -3.006385 -2.692285 -3.789979 0.326090 0.669575 1.820143 -2.765372 0.157858 1.067728 0.450655 -1.385148 0.208955
f -2.956595 -0.889068 -0.233511 -3.526294 3.383002 0.380751 -1.161433 0.386774 0.110509 -0.361927 -1.100348 0.518143 -0.473115 -0.929442 1.538864 -0.079225 -0.204422 3.221194 2.152198 1.948761 -1.074566 -2.235966 -0.033886 -0.575936 0.215346 2.478251 -0.517978 0.568022 -0.309609 -0.158147 -1.995939 0.982421 -1.753782 1.227567 -0.673198 -0.654257 2.475143 -2.875583 -0.069409 -3.013871 -3.923131 -0.399325 0.880124 2.916382 0.394699 1.335246 1.854522 1.648544 -1.533560 1.110593
A -1.030871 -1.725418 -1.600143 -1.455381 1.497267 -0.418384 -2.910311 -0.576304 -0.332146 3.449882 -1.866888 -2.394808 0.358148 0.664485 1.171409 -2.420641 -0.274576 0.225045 0.310473 2.282186 0.968392 -1.369708 -1.134799 -0.490943 -0.437724 0.537230 -0.028383 4.041748 0.133385 -0.247276 -1.508138 2.018162 -2.406308 3.057416 -1.056499 -0.236189 0.556970 -2.333630 -2.963396 -1.891363 -5.598628 -0.126369 1.731557 3.735549 -1.103874 -1.079644 2.587086 0.460533 -2.649301 -0.479598
E -0.389132 -1.850757 -0.422315 -1.026177 0.655206 0.554377 -3.914861 -0.526948 -0.548682 4.660553 -1.533145 -2.749300 -0.595565 0.047591 0.720081 -2.635722 -0.443186 0.936597 0.842765 2.720521 1.127331 -1.241204 -0.995844 -0.354423 0.595800 -0.297988 1.154979 4.454609 0.784384 0.208200 -2.364140 1.997250 -2.788469 2.717090 -0.093990 -0.765017 1.729921 -1.639525 -3.293875 -2.151152 -4.966135 -0.079074 0.808441 2.746922 -1.127737 -1.451785 2.174424 0.394608 -2.660537 -0.124159
b -1.733069 -0.910580 -1.891207 -2.374845 2.533468 -0.315672 -1.859083 -0.015638 -1.502791 -0.093741 -0.766957 -0.059690 -0.315781 0.371676 1.278495 0.273327 0.756328 3.512558 3.562127 1.701102 -0.757022 -2.871979 0.303844 -0.701201 0.680897 1.629717 -0.696624 -1.041487 0.211952 -1.165397 -0.602914 1.192671 -1.614026 -0.149387 -0.854457 0.430198 0.662792 -3.267397 -1.154703 -3.226129 -3.565864 -0.517601 0.486844 3.353206 -0.758964 1.138247 1.886670 1.962467 -0.528731 0.939998
C -0.245861 -1.489462 -2.827906 -2.284820 2.414079 0.413075 -2.046975 -0.284415 -1.212349 3.305602 -1.206531 -1.043070 -1.857385 -0.120934 0.186147 -1.265589 0.187186 1.395458 3.218150 1.670394 1.655563 -0.802268 -2.299490 -1.025387 1.548747 0.688749 1.804145 1.350450 -1.003283 1.576720 0.734780 2.305523 -2.590735 2.180486 0.903306 -0.243453 0.935030 -2.628796 -3.389561 -3.457967 -4.066115 0.295874 1.590564 2.853596 -0.714335 1.537539 1.349632 -0.688877 -1.914362 0.489646
S -0.956228 -1.302429 -1.711556 -1.687338 2.175473 -0.111515 -2.308886 -1.394171 -0.432128 1.711816 -1.653983 -3.466874 -1.511294 -0.665515 0.222117 -0.425594 -0.468903 1.170068 1.267572 0.951653 0.619780 -0.932633 0.012655 0.758023 0.532273 1.155176 -0.050413 0.463286 -0.705897 -0.431800 0.564840 2.606358 -3.213641 3.073635 0.024344 -0.658595 0.829844 -1.628820 -0.903349 -4.348971 -4.109504 0.201831 1.587116 2.248521 -0.351844 0.839599 1.888655 0.261611 -3.459668 0.565840
‍ -0.505891 -0.016425 0.156462 0.379100 -0.563433 -0.819579 0.851031 0.884366 -0.832866 -0.128033 0.957335 0.893988 -0.808794 1.271967 0.853386 -0.220405 -0.200266 -0.954585 0.276527 -0.499088 -0.418210 0.644490 -0.010210 -0.877462 -0.160638 0.585975 -0.146049 -0.437813 0.557382 -0.860516 0.008560 0.132859 1.069507 1.084552 0.037470 -1.178999 0.406720 -1.039522 -0.678600 0.218340 -0.082013 -0.378197 -0.920659 0.083355 -0.144306 0.681864 -0.416649 -1.067860 -0.227003 -0.430778
ഛ 1.180910 -0.873430 -2.796162 1.608923 0.907454 -0.701501 -1.442464 2.049122 -2.202098 1.212881 1.309218 0.990072 0.051356 2.501515 -0.805186 0.449863 0.673107 -0.137037 -0.394281 -0.657897 -0.753552 -1.023117 -0.130541 -0.993882 1.562315 -0.160379 -0.298559 -1.331638 2.265717 -0.344625 0.360313 -2.021167 1.791796 -2.088721 1.115564 1.004213 -2.890704 -0.119406 -2.052075 1.424531 -1.154298 -0.899971 -1.738480 1.189852 0.472833 0.235654 -1.572859 0.081171 -0.798569 1.471421
I -0.073762 -1.357172 -1.095870 -0.434618 2.001786 0.974023 -3.840789 -1.068395 -0.152653 2.536263 -1.633984 -3.281224 -1.137491 0.554213 0.450861 -2.883950 -0.715615 -1.330907 -0.655951 1.961560 1.709399 -0.397712 -3.463077 -0.140293 0.230214 1.760287 0.639948 3.873569 0.273266 1.161621 -0.486571 1.489331 -3.587806 3.724732 0.325924 -0.243888 2.634799 -0.767137 -2.440028 -2.754436 -5.949745 -0.885938 2.301106 3.074201 -0.746688 -1.437653 2.324472 1.436483 -3.920829 0.031096
; -0.404902 -0.504571 -0.349679 -0.297989 0.578080 0.974812 -0.577857 0.180482 -1.013445 0.360134 -0.670712 -0.219436 1.002850 0.099615 -0.179817 0.706683 0.264770 -0.346153 0.518409 0.051973 0.555105 -1.219132 0.405719 -0.141195 0.167426 0.362628 0.818332 0.153426 0.002807 0.291557 -0.178860 0.300099 -0.289533 0.483163 -0.553752 0.144354 -0.073749 0.174586 -0.584379 -0.642798 -1.466536 0.094701 0.069431 1.311168 -0.226247 -1.106603 0.433022 -0.648986 0.225289 0.370635
v -1.802938 -0.478430 -0.408447 -2.368688 2.417119 -0.155449 -1.685024 -0.063393 -1.106252 -1.435385 -0.696531 -0.666235 -2.254189 -0.231587 1.592041 1.650102 0.632657 3.221779 2.790493 1.425922 0.248191 -2.224556 -0.326196 -0.581066 0.418443 2.399078 -1.772391 -1.395098 -0.338048 -0.728942 1.163603 1.425208 -1.524115 0.469649 -0.843991 -0.669712 1.548955 -1.823980 -0.552386 -2.750095 -4.152624 -0.909760 -0.420199 2.266697 -1.778624 1.384381 1.949310 2.470130 -1.412056 1.047436
ൌ -0.920829 0.730015 0.059334 0.024440 -0.441224 0.178948 1.846210 1.177402 -0.127489 -0.647234 -0.910850 1.852791 0.440577 0.715827 0.867006 -0.407568 -2.742365 -1.102391 0.083067 -0.061019 -1.669567 2.098758 0.742348 -1.668188 0.248192 0.889320 -1.251300 0.814812 0.338485 0.343169 0.509079 -0.041744 -0.667172 0.125047 -0.234900 1.168049 1.811854 -0.985182 0.028305 -0.177551 0.548697 -0.588977 0.085586 -1.149525 2.093304 0.355170 1.471092 0.401113 0.837952 0.278750
ഔ 3.908722 -2.528820 2.162446 -0.140183 0.501092 1.485452 -1.567393 -2.741980 -1.580732 -0.537346 0.167832 -1.720142 2.297811 1.814494 0.936636 -1.445630 -0.017894 -2.271919 1.056875 -1.545375 0.030672 -1.700146 0.139910 -2.752386 -1.689716 -1.180727 0.161896 2.669790 0.715812 -0.977187 0.512197 -0.662040 1.688427 1.896375 -0.418127 2.387867 2.452957 2.626614 3.360346 -0.920030 -4.747490 -0.795304 -0.665258 0.560095 4.022974 1.668049 -4.464655 -2.039980 -1.347165 -1.250922
P -0.696192 -0.838718 -2.263937 -2.306422 1.616662 0.834955 -2.308672 -0.360481 -1.133469 2.458694 -1.278262 -1.137445 -1.132937 0.101190 0.880202 -0.298237 -0.058541 1.184706 2.119099 1.257505 0.946546 -0.697993 -1.365788 -0.478524 0.612834 2.266870 0.425240 0.288595 -0.682890 1.481349 0.685113 2.613795 -1.761246 1.826055 0.055888 -0.607197 0.647674 -2.599203 -2.725970 -2.787175 -3.435633 0.345770 0.827678 2.974735 -0.944318 0.579476 1.392209 1.144453 -2.215071 0.931638
T -0.264177 -0.889602 -2.158450 -1.808832 1.628408 0.150261 -1.924540 -0.332293 -2.225967 2.383988 -0.774537 -1.338227 -2.336537 -0.562429 0.616803 -0.402449 0.062964 1.299679 2.995270 0.761115 1.222566 -0.773032 -1.460984 -0.792784 0.821475 1.222816 0.400708 0.681722 -0.300324 1.568603 0.630100 2.304337 -1.929395 3.561574 0.413293 0.214197 0.210338 -2.594025 -2.903716 -4.395321 -4.683550 0.762997 -0.086220 2.801152 -0.304912 0.854671 1.463046 0.563253 -3.271972 0.802525
M -0.124818 -1.186599 -1.356576 -3.106019 2.269239 1.477845 -2.831375 -1.385593 -1.796358 2.492364 -1.388413 -1.898777 -0.519234 0.413656 0.722388 0.311589 -0.940619 1.138068 2.249148 1.334387 0.983293 -0.581610 -0.974513 -0.165845 0.779270 1.989230 0.505332 -0.192422 -0.402663 0.783674 1.134458 2.680955 -2.749501 1.636719 0.719167 -0.514335 1.492066 -2.562230 -1.763163 -3.143284 -3.433377 -0.564042 0.844704 1.961948 -1.657452 0.549947 1.191934 1.646453 -2.106827 1.175923
k -1.432590 -1.211996 -1.962874 -2.176746 2.637722 0.694565 -1.074874 -0.390141 -1.370869 -0.971115 -1.163326 -1.485722 0.683311 1.311761 1.038849 -0.079620 0.174249 2.328597 1.887566 0.900703 0.262162 -1.913175 0.600211 -0.691960 0.500435 1.662097 -2.029414 -0.559723 0.329612 -1.077162 -1.044836 2.105117 -1.784958 0.799565 0.680146 1.782333 1.858901 -2.958495 -0.479964 -3.186404 -4.210852 -0.314527 0.135841 3.283872 0.388077 0.663398 0.538099 3.091132 -1.343213 -0.223952
ഊ -0.671576 1.154150 -2.200835 -2.362285 -0.484897 0.505284 2.911300 1.172996 -0.024401 0.848351 -0.199928 -2.673589 -1.003164 -1.521724 -0.703020 1.901773 -1.169229 0.901088 -0.472377 -1.804162 2.721946 0.282279 1.368399 -0.023707 0.965686 -4.271946 -0.328347 -1.199428 -1.567699 0.661787 3.477065 0.029915 -1.952402 0.955459 -1.135599 0.558976 -0.179918 0.000017 -2.397133 -0.145762 -1.436453 1.078370 0.019636 -0.422129 2.257149 1.515692 0.668312 -3.059108 0.381417 -0.404749
D -0.825862 -1.207882 -0.575366 -2.321017 1.441907 1.107975 -2.579354 -1.158170 -1.021988 2.379923 -1.125547 -1.750491 -2.227581 0.353369 0.797290 0.375969 -0.512998 1.701862 2.775329 1.428037 0.575539 -0.895263 -0.707299 0.093394 0.665446 1.718394 -0.314074 0.821405 0.228083 0.521548 0.572156 2.530081 -2.272259 3.124202 0.034895 -0.274966 0.852299 -1.817157 -1.470608 -3.952870 -4.811371 -0.080574 0.438977 2.017882 -1.793808 0.838534 1.970503 1.078159 -2.605006 0.806127
w -1.710173 -0.693672 -2.003655 -2.184774 2.473010 0.219714 -1.669819 -0.537045 -0.887116 -1.629676 -1.145831 -0.870456 -0.195802 0.075423 2.119286 -2.344727 1.258350 1.890279 1.566033 1.887294 1.123222 -1.228411 -0.697135 -0.995447 0.137240 1.243966 -1.238640 0.492185 0.973435 -1.728974 0.278271 2.683584 -2.637315 2.520784 0.185478 0.123394 2.019999 -2.716801 -0.999754 -3.124704 -4.129059 -0.445318 1.583406 2.172551 0.239974 1.058415 -0.490742 2.577840 -1.801000 -0.131376
­ 0.169906 -0.485111 0.525262 1.885571 1.013590 -1.083274 0.615060 -0.312168 2.362602 -1.833377 -0.035628 1.063975 1.432756 -1.222384 -0.657283 0.164057 0.742640 0.339348 -0.553661 -0.490386 -1.158745 -0.895621 1.233742 -1.050449 -0.045061 0.005808 -1.304932 0.375630 1.582255 -1.370185 -0.581666 -1.214387 0.767420 -2.388762 0.326964 0.959545 0.633236 -0.143855 1.455759 0.624916 1.249316 0.484714 -0.724504 1.119976 1.724945 -0.484166 -0.427932 1.592507 -0.186773 -0.076496
/ -0.574754 -0.060154 -0.732751 -0.786576 1.673894 0.736563 -0.934792 -1.466980 -0.509731 0.920183 -1.112173 -2.331975 1.563211 0.732418 2.264696 -2.650711 0.445840 0.508521 0.929765 -0.396451 1.078839 -0.393704 1.282027 -0.649259 -0.857080 -0.795538 -0.602076 1.142564 0.684492 -2.838988 -0.919581 2.699479 -1.677147 2.633400 -0.165988 -0.254663 1.137436 -2.239808 0.853295 -3.249508 -4.230372 -0.094143 1.261700 1.854738 0.063224 0.692672 -0.667994 1.151373 -0.626224 -0.586933
N -0.467778 -1.993440 0.298827 -3.597624 2.651936 1.585183 -3.506077 -2.234414 -1.952938 3.425565 -1.984947 -1.965071 -1.212528 0.664207 0.305335 0.246151 -2.146318 0.755394 1.815792 2.395683 1.015121 -1.364518 -1.246838 -0.415944 0.346700 0.467093 0.915610 0.580957 0.139712 0.435690 -0.221462 2.794517 -3.204748 2.418983 1.500219 -0.054377 2.309755 -2.314238 -0.817176 -4.288156 -5.059539 -0.146327 0.792859 1.498251 -1.601596 0.989122 1.488983 0.148868 -2.217650 0.366714
H -0.571142 -1.160915 -0.517138 -2.815962 1.356848 1.764655 -3.512661 -1.348073 -2.392435 3.323248 -1.423161 -1.134099 -1.059724 -0.082538 1.213399 -0.419080 -0.922838 2.143853 2.839504 1.609149 0.156925 -0.680937 -0.394734 0.165373 0.545409 1.587045 0.642671 0.343204 -0.261281 0.738941 0.164766 2.444279 -2.598083 2.621641 0.333263 -0.663670 1.603875 -2.667536 -0.862497 -4.112504 -4.097108 -0.363065 0.829930 1.562377 -1.319259 0.673713 0.895431 1.116534 -2.394040 0.627938
R -0.933585 -1.588592 0.158546 -3.243950 2.224939 1.007414 -2.670949 -1.697826 -1.971152 1.736030 -1.267639 -1.585489 -1.653960 0.196208 0.296529 0.723795 -1.782477 1.707880 2.011950 1.395540 0.811356 -0.669294 -0.512863 -0.298420 0.674730 1.149449 0.510113 0.095752 -0.633531 0.459647 1.034242 2.554389 -2.701779 1.685593 1.379619 -0.373682 1.255734 -2.045289 -1.107493 -4.222867 -3.629074 -0.180961 0.563362 1.362123 -2.333191 0.920246 1.307088 1.479539 -2.401393 1.114823
F -0.946629 -1.091771 -0.498804 -2.092472 1.399492 1.117899 -2.519613 -0.583254 -1.080801 3.509229 -1.353141 -1.287268 -1.541365 0.581624 0.909885 0.352813 0.252061 1.982986 2.030159 2.392882 0.620490 -0.967724 -1.780770 -0.763746 0.685506 1.623501 0.089881 1.222816 -0.547461 1.280906 0.597273 2.273611 -2.324121 3.057446 0.088425 -0.596749 1.364816 -2.168368 -1.733804 -2.755931 -4.495080 -0.412339 0.652172 2.343469 -1.990158 0.337104 1.684002 0.269428 -2.041209 0.551620
ഃ -0.886200 1.281296 0.096879 -1.055472 0.314518 0.632461 -2.663647 2.291583 -1.245276 1.068536 -0.750244 1.523034 -0.012867 0.816880 -0.299816 0.174616 -0.979200 0.603809 -0.604800 0.766078 -0.652887 0.680441 0.518408 -0.438955 1.608346 0.938086 0.456746 0.905461 0.131874 0.897828 -1.096376 -0.603594 1.446427 0.931820 0.818525 0.605696 -2.027554 -1.221221 -1.088215 0.820220 -1.295985 0.457483 -3.642681 0.130404 0.611521 0.156710 1.333691 -1.444400 -1.971235 3.756090
‘ -0.467976 -0.613733 0.181164 -0.966243 -1.473881 -0.593595 -0.028172 0.819650 -1.585288 -0.670020 1.531309 0.813373 0.047293 0.294168 0.348148 0.329132 -1.229688 -1.658394 0.061618 -0.995762 -0.804181 -0.605360 0.755455 -1.605972 0.455817 -0.459969 0.640341 -1.133392 0.954340 -0.615099 -0.248393 0.278530 1.606045 1.717643 -0.626816 -0.848617 -0.615473 -2.220035 -0.444644 -1.423550 -1.731254 0.183256 0.285319 0.054827 0.614232 0.581249 1.691293 -3.096532 -0.487133 -0.473954
O 0.029880 -1.696667 -0.049766 -1.102492 0.633994 0.431554 -4.282179 -0.689674 -1.926588 4.896685 -2.034582 -1.397099 -1.036951 0.483247 1.043524 -2.320292 -0.385972 0.078406 1.259219 3.058301 0.834890 -1.979839 -1.001758 -1.137354 0.510782 0.377570 -0.045239 3.627717 -0.409838 0.860778 -1.619596 1.431793 -2.974638 3.948413 0.012532 -0.288976 2.017515 -2.691237 -2.066974 -3.575865 -6.869397 -0.235445 0.796322 3.028152 -1.065881 -0.791853 2.659420 0.221042 -2.651129 -0.256229
L -0.567811 -1.735155 -0.430902 -2.884194 2.286395 1.161165 -2.666787 -1.485884 -1.834643 1.753733 -1.373909 -2.285216 -1.160202 0.821231 0.685123 0.698593 -1.804993 0.553575 1.775875 0.885877 0.663826 -0.264104 -0.652370 0.072210 0.704904 1.344202 0.640817 -0.130717 0.075154 -0.181212 1.256415 2.970520 -2.824683 2.504055 0.452612 -0.339038 1.409676 -2.474769 -0.599128 -3.651043 -4.245173 -0.648770 0.625345 1.812891 -1.469095 0.690405 1.432516 1.083276 -2.582388 0.956860
x -1.367926 -0.526282 0.692667 -2.969162 1.898743 0.593926 -2.828871 -0.992137 -2.008241 0.554534 -0.431369 -1.130407 -0.592859 0.300486 1.269436 0.298663 -0.782398 2.704531 2.395157 1.807820 -0.684775 -0.885359 -0.018215 0.257120 0.596741 1.348313 0.301717 0.424297 -0.762118 -0.420432 -0.689121 1.969272 -1.566317 1.427491 0.886937 -0.749574 1.334535 -2.573610 -0.355404 -4.228353 -4.313681 0.104019 -0.092103 1.721902 -2.108226 0.261995 2.241501 0.926707 -1.790596 1.083933
G -1.152683 -0.296778 -0.890728 -2.345205 2.018160 0.607389 -2.488096 -0.605269 -1.177665 2.071552 -1.379981 -1.249432 -1.376676 0.619805 1.104924 -0.316043 -0.167440 1.936914 1.735097 1.667602 0.752609 -0.594616 -0.948299 -0.196829 0.406162 1.597384 0.521090 0.438046 -0.171932 0.628373 0.950388 1.858014 -2.217724 1.895126 0.201257 -0.461252 0.825605 -2.768018 -1.615554 -2.743244 -3.379088 -0.429523 1.228482 1.925330 -1.552660 0.501572 0.820345 0.932406 -1.778954 1.007502
– -0.801362 1.231201 1.191958 -1.897319 -1.036698 1.688206 -0.671286 -0.937817 -2.025593 0.701922 0.975052 0.464817 -0.423800 -0.696692 1.710447 0.955640 0.998433 2.108384 2.366637 1.316711 -0.429541 -0.653876 -0.666746 0.272080 0.790697 -0.402742 -0.146251 0.249194 -1.295900 0.552603 -0.667737 1.973419 -0.031654 0.033547 0.146414 -0.514483 0.094852 1.165348 -0.939093 -1.305995 -1.505312 1.039791 -0.460245 -0.240571 -1.637752 0.270178 -0.827200 -0.380941 0.706789 0.812736
’ 0.073652 -0.903027 -0.096436 -0.989457 -1.421367 -0.607970 -0.352394 0.739744 -1.529760 -0.137785 0.838945 0.174641 0.110419 0.550224 -0.118353 0.466187 -0.970005 -1.223149 -0.133623 -0.129506 -0.580390 -0.490753 0.262941 -1.711127 -0.033497 -1.061074 0.866507 -0.247247 1.064982 -0.156741 -0.065435 0.305878 0.970264 2.007800 -0.389613 -0.276058 -0.625133 -1.816946 -0.339075 -0.852789 -2.140632 -0.003858 0.093865 0.503470 0.616563 0.363209 1.483859 -3.239627 -0.802417 -0.710177
ഢ 0.839181 -0.580853 -0.690102 0.392073 1.923151 -0.344474 0.162997 0.252007 -1.795311 -0.633684 1.301385 -0.254254 0.826716 3.313795 0.113956 -0.325855 -1.181034 -2.599630 -0.567837 -2.271360 0.544683 2.190224 -0.949620 -2.231791 0.157186 0.228513 0.113209 -0.762572 1.569951 0.807310 -0.544380 -0.625504 0.244836 1.037388 1.816781 1.818058 -0.168206 -0.449495 0.820131 -0.099960 1.515909 -1.312944 -0.864200 -0.173310 0.663037 1.697331 -2.396711 0.711018 -0.343861 -0.283327
K -0.602859 -0.218362 -1.198812 -1.869454 1.286016 0.975174 -2.126939 -0.571850 -1.563157 1.504439 -0.840749 -1.438521 -0.945915 0.147195 1.044882 -0.662264 -0.570686 1.203968 1.937604 1.298177 0.980477 -0.046766 -0.889786 0.290762 0.483551 1.781804 0.443397 0.189671 -0.695740 0.592439 0.207368 2.470343 -2.058602 1.879391 0.536109 -0.072966 0.970554 -1.812061 -1.861848 -2.523228 -3.206470 -0.033058 1.039701 1.825533 -1.114197 0.197346 0.779561 0.817005 -1.654112 0.789806
“ -0.884173 0.048499 -0.621460 -0.237917 -0.515370 0.119363 1.201746 0.978820 -0.769514 -0.918679 0.760363 0.039091 1.124230 0.229155 0.376567 -0.013590 -0.343503 -0.898324 -0.564347 -0.843243 -0.605983 -0.278390 0.646412 -0.903550 0.193677 -0.164109 0.000949 -0.633528 1.688202 -1.177513 0.053218 0.102184 0.888740 0.785978 -0.467415 0.781144 0.062713 -1.310003 -0.084801 0.752965 -0.776797 0.318030 -0.510322 0.606870 1.682996 1.004487 -0.313606 -0.660592 -0.648817 -0.789744
V -0.545503 -0.616995 -0.533157 -1.879496 1.786967 0.965985 -2.132533 -0.697486 -1.341814 2.096678 -1.155610 -1.347891 -1.579631 0.441623 0.716310 0.067993 -0.611516 0.477483 1.840706 1.689590 0.657555 -0.791795 -1.809084 -0.524791 0.335614 1.032473 -0.072795 0.207717 -0.170518 0.720977 0.743548 1.657937 -2.465689 2.901304 0.653420 -0.116438 1.071759 -1.402210 -0.936026 -2.835191 -4.593044 -0.726371 0.780974 1.305175 -1.812327 0.226664 2.093931 0.931315 -1.656086 0.609280
W -0.828866 -0.434808 -1.250732 -1.457448 1.032809 0.022460 -1.645597 -0.125813 -1.382286 2.363653 -0.952143 -0.846920 -1.098033 -0.156949 1.115510 -0.796849 -0.347028 1.061214 1.756187 1.364645 0.922965 -0.635677 -0.756600 -0.431613 0.573490 1.237478 0.164333 0.544889 -0.659146 0.287814 0.379429 1.873276 -1.581229 2.093170 -0.400346 -0.350897 0.389818 -2.319592 -1.833938 -2.457182 -3.382076 0.070724 0.593849 1.898217 -1.120335 0.241584 1.294368 0.751301 -1.619074 0.639254
_ -0.043688 0.068176 1.624310 -1.604012 -0.539962 0.685280 -3.088736 -1.198037 -2.616491 1.181769 0.743627 0.249259 -0.224853 -0.964372 1.603124 0.219804 0.561471 1.747660 1.786743 2.359499 -0.542957 -2.385428 -0.203426 -0.433950 0.963310 -0.209758 -0.269187 0.115456 -1.045449 0.083360 -1.683038 1.514801 -0.279217 -0.529597 0.988434 -1.084276 1.409742 0.159191 -1.444345 -2.473881 -2.232449 1.250112 -0.598210 0.052210 -2.694338 -0.108305 -0.136942 0.713336 0.656707 1.284306
= -0.466899 -0.329834 0.113418 -1.789934 -0.130244 1.074038 -1.989385 -0.368213 -1.985723 1.827061 -0.470217 0.073881 0.150893 0.288162 1.001383 -0.133676 -0.362421 0.968534 1.979114 1.130665 -0.192175 -0.875000 -0.152240 0.627743 0.220917 0.514007 0.125690 0.774541 -0.433832 0.380810 -1.372907 1.179901 -1.101245 1.672122 -0.021516 0.457304 0.639438 -1.595576 -0.537993 -2.201939 -2.692724 -0.024198 -0.381941 0.960615 -0.545469 -0.817366 1.145639 -0.675428 -0.817084 1.231302
+ -0.608754 -0.340728 0.850696 -2.107153 -0.423811 0.727200 -2.377428 -1.070337 -1.784402 2.659975 -0.629661 -0.590818 -1.403870 0.272089 0.133728 0.083889 -0.397578 1.726517 1.489099 2.394798 0.259741 -0.731502 -1.070915 0.311617 0.616349 -0.350954 0.263526 1.571718 -0.025634 1.526922 -0.968777 1.485074 -1.898673 1.349634 0.674514 -0.020619 0.976471 -0.834340 -0.924737 -2.408113 -3.394449 0.362445 -0.370452 0.379159 -1.430295 -0.118742 0.830384 -0.174853 -0.631466 0.370743
U -0.452272 -0.851657 -0.204969 -0.327384 0.448845 0.897145 -3.030772 -0.631926 -0.870746 2.905298 -0.867369 -2.276124 -1.502769 0.782906 0.469853 -1.695051 -0.079266 0.386449 0.778627 2.024544 1.265206 -0.590860 -1.457303 -0.595193 0.730081 0.572847 0.309757 2.423233 -0.525513 0.879324 -0.487000 1.523338 -2.622301 3.123297 0.032227 -0.401972 1.110234 -1.041862 -1.430593 -2.353096 -4.449857 -0.142789 0.571694 2.279374 -0.558649 -0.914975 1.438942 0.020168 -2.678389 0.061065
z -1.331226 -0.059230 -0.482081 -2.071538 2.528385 0.756814 -0.922579 -0.119282 -1.581039 -0.003554 -0.592709 -1.020063 -0.744069 0.370452 0.976269 0.264088 -0.484393 1.784567 2.239078 0.824068 0.505856 -0.826409 -0.969941 -0.684549 0.880783 1.478247 -0.243537 -1.227655 -0.442289 0.014998 0.331661 1.510165 -1.848243 0.962668 0.651385 0.311637 1.357059 -2.033696 0.010267 -3.037162 -2.956924 -0.774411 0.118164 1.717979 -0.903170 0.613170 0.894257 1.803154 -0.980656 1.500418
” -0.536136 0.036297 -0.803611 -0.450163 -0.450631 0.407879 1.065223 0.322117 -0.801488 0.131912 0.043946 -0.501133 0.490703 0.584975 0.668960 0.806990 -0.568047 -0.424992 -0.058781 -0.360224 0.022085 0.581852 -0.111262 -0.122771 0.012422 -0.995548 0.138471 -0.155795 1.184443 -0.462327 -0.011190 0.188432 -0.329364 1.106380 -0.194556 1.053439 0.462140 -0.834896 0.065969 0.582572 -0.812579 0.213471 -0.886705 0.104882 1.011825 0.516240 0.415958 -0.545087 0.058693 -0.902130
ഋ 0.652373 -0.626411 -0.234863 -0.895724 0.626215 1.068887 -0.089941 -0.381173 -1.237958 0.443202 0.379409 -0.433460 0.824591 0.688872 0.173213 -0.267824 -0.025108 -0.643010 1.012866 -0.559106 0.496437 -0.334174 0.205218 0.142869 -0.479388 -0.728934 0.978904 -0.062373 -0.886858 0.077586 0.631320 -0.175105 -0.411140 0.853666 -0.063740 0.056985 0.524520 0.092079 0.462205 -1.213407 -0.654053 -0.724148 -0.634648 0.308964 0.718023 0.549802 -1.142930 -0.989285 -0.678754 0.411391
J -0.587109 -0.197776 -0.931277 -2.609557 1.219644 1.083086 -1.380586 -0.303869 -1.506245 0.488151 -0.401703 -0.713802 -0.676198 0.242661 1.110973 0.371148 -0.990043 0.993431 2.060640 0.870894 0.214482 0.169348 -0.763589 0.438560 0.671996 1.443066 0.891264 -0.530281 -0.734206 0.422943 0.695085 2.144542 -1.454896 1.530661 0.710133 -0.517517 0.490007 -2.213161 -1.197470 -2.602160 -2.614493 -0.207712 0.866834 1.352436 -1.374874 0.823434 0.766688 0.436277 -1.377515 1.082342
j -0.925316 -0.519203 -0.510372 -1.993811 1.765547 0.746060 -1.031929 -0.489191 -1.202081 -0.106883 -0.609088 -1.602942 -0.031075 0.705916 0.371137 0.488193 -1.274640 1.364900 1.301787 0.583901 0.487096 -0.600187 0.192817 0.181443 0.564891 0.967767 0.196266 -1.118191 -0.572513 -0.547693 0.040351 1.392996 -1.476241 0.386677 0.525029 0.370856 0.977621 -2.003854 -0.127589 -2.388338 -2.281766 -0.453938 0.034094 1.531027 -0.986104 0.257566 1.147925 1.391175 -1.137312 0.763478
q -0.297382 0.060192 -0.245859 -2.389223 1.748978 0.572570 -1.550181 -0.215804 -1.154803 -1.673584 0.642344 -1.113452 -1.839090 0.308368 0.668361 1.970901 -1.035554 2.109844 2.861144 -0.439639 -1.130039 -0.397325 -0.065647 -0.467374 1.489220 2.245920 -0.131413 -3.159186 -0.404756 -0.358890 1.465831 0.892413 -0.690203 0.936233 0.660023 -0.764144 -0.816890 -2.117851 0.391141 -3.773306 -2.407161 -0.565542 0.241530 0.576087 -1.799729 1.709857 1.214897 0.746833 -1.141763 2.465869
° 0.443965 -0.654877 1.917998 -1.309815 -0.580400 1.615683 -1.673673 -1.633460 -0.776495 2.778318 0.279357 -0.712292 -0.582506 -0.396320 0.636134 0.290006 -0.196792 0.754833 1.555938 1.718044 -0.391818 -0.601785 -1.093614 -0.305702 -0.120685 -0.230007 0.719813 0.691178 -1.264480 0.362605 -1.084506 1.385893 -0.624145 1.865009 0.983744 -1.378586 0.923032 -0.229539 -0.514083 -1.998191 -2.870356 0.567454 -0.692963 0.147842 -1.032838 -0.052712 0.693582 -0.777906 -0.962282 -0.042955
​ -0.495497 -0.027439 2.173787 -0.505103 -1.553817 0.467126 1.039184 -1.364377 0.761810 -0.153167 0.084116 0.326713 0.056802 -0.356062 0.725776 -0.143665 0.065785 0.452353 -0.856316 0.414154 0.563409 0.588595 0.114311 -0.590766 -0.789651 -0.279357 0.348114 1.006037 1.210810 0.144670 0.471162 1.195892 -0.086993 1.616020 0.347204 0.371470 0.465079 0.136192 0.825107 0.232972 -0.403942 0.114081 -0.976639 0.020829 0.346543 -0.027394 0.291709 -0.466989 -0.363896 -1.460336
ൿ -0.245229 0.654400 0.285544 -0.304707 -1.109827 -0.105063 0.826478 -0.804896 0.340472 -0.757094 0.260746 -0.191023 -0.782337 -0.045050 1.284458 -0.706416 -0.629137 -0.389056 -0.283281 -0.751809 -0.014777 0.668002 0.267799 -0.963616 -0.942582 0.317857 -0.305648 -0.353052 0.139031 -0.344359 0.851881 0.476269 -0.161377 1.203235 -0.270041 -0.890636 -0.156535 -1.100379 0.659555 -0.581482 0.049075 -0.389171 0.750125 -0.100521 0.509510 -0.006830 0.647061 0.119223 0.440327 -1.470254
X -0.014361 -0.454643 0.564372 -1.654906 0.676339 1.062968 -1.758352 -1.135921 -1.977831 1.709750 -0.060755 -0.815405 -1.468228 0.442675 0.570418 0.932454 -0.700659 0.609059 1.424082 1.289442 0.520277 -0.266173 -0.939779 -0.016771 0.692979 0.572834 0.106653 0.201759 -0.513867 0.947533 0.584376 1.512374 -1.681332 1.958684 0.909382 -0.243423 0.755351 -0.670035 -0.569279 -2.335361 -3.455912 -0.150801 0.214943 0.715677 -1.451060 0.143224 1.237877 -0.173851 -1.077681 0.585165
> -0.207935 -0.023320 -0.454642 -2.651590 1.007859 1.117978 -1.108850 -0.884224 -1.454900 0.518464 -0.077666 -0.832919 0.011742 0.626190 1.233498 0.537968 -1.094135 0.299639 1.644365 0.667265 0.233896 -0.139150 -0.898729 0.500518 0.198490 1.210054 0.361762 -1.009707 -0.547841 0.149613 0.374411 1.870826 -1.377370 1.151333 0.982247 -0.483462 0.694472 -1.933748 -0.605424 -2.268011 -2.123890 -0.559080 0.057020 0.666880 -1.620890 0.181243 0.999478 0.766816 -0.330044 0.397193
Y -0.443619 -0.066047 -0.022951 -1.762187 1.125344 0.154593 -1.233435 -0.432751 -1.261507 0.767261 -0.500668 -0.633572 -0.761767 0.277627 0.439138 0.315592 -0.790117 0.645416 1.094591 0.950569 0.526151 -0.151036 -0.795571 -0.289504 0.569712 0.745528 0.461132 -0.117958 -0.383274 0.496191 0.592891 1.259302 -1.076375 1.121427 0.881296 -0.378137 0.304678 -1.388864 -0.440895 -1.903925 -2.251886 -0.615394 0.727526 0.609545 -1.241443 0.572566 0.867858 0.237825 -1.064225 0.473798
] -1.228387 -0.158239 0.459708 -1.444305 0.889625 1.147872 -0.292632 -0.517049 -1.152021 0.973138 -0.478002 0.025179 -0.009096 1.086204 0.699322 0.173518 -0.360889 2.177646 1.776368 1.509211 -0.221937 -0.431462 0.368694 0.508956 -0.104997 0.668064 -0.404079 0.390397 -0.366898 0.267421 -0.505914 0.666081 -1.134872 1.804166 -0.193335 0.443337 0.668718 -0.928104 -0.151828 -1.658975 -1.803199 0.083713 -0.439322 1.195894 -0.394383 -0.683093 1.319448 -0.329841 -0.634760 0.314062
் -0.393624 0.114469 -0.456589 -1.955269 -0.108251 3.767376 0.619638 0.878207 -0.130378 2.423309 -0.028582 -0.857958 -2.256372 0.640331 2.008105 4.135190 1.316067 0.647890 3.614113 4.007070 0.738457 -0.542383 -1.384581 0.805247 0.582881 -2.273835 0.819279 2.895584 -1.468848 1.019959 0.284105 2.073684 -3.293786 1.556419 -0.481057 2.175352 -0.202661 0.781974 1.872639 2.159620 -4.568804 -0.892260 -0.684215 1.248230 -0.930116 -2.246136 1.230804 -2.860388 0.102781 -0.924886
[ -1.177244 -0.560710 0.079558 -1.260725 0.527184 0.757672 -0.404224 -0.836587 -1.462093 1.488621 -0.597360 -0.511509 0.219442 0.699246 0.660870 0.312849 -0.808411 1.941387 1.464115 1.000606 -0.051008 -0.236264 0.210754 0.615908 -0.233818 0.527246 0.111355 -0.063160 -0.042066 0.112732 -0.314401 0.819569 -0.925523 0.862098 -0.827170 0.300973 1.003860 -1.123065 -0.055557 -1.606880 -1.541515 0.169464 0.058123 1.029289 -0.520514 -0.048477 0.420113 0.222817 -0.783998 0.110817
? -0.143768 -0.118159 -0.296216 -0.560610 -0.133206 0.021500 0.022830 0.032050 -0.815558 0.299922 0.094519 -0.475241 0.456538 0.464861 0.562536 0.213558 -0.276885 -0.457947 0.519139 0.131544 -0.208440 -0.007161 0.227846 -0.145835 -0.370769 0.342812 0.255573 -0.014108 -0.155669 0.094798 -0.350058 0.680628 -0.082678 1.291279 -0.146147 0.279377 -0.156570 -1.437895 0.047330 -0.466263 -0.876008 -0.138828 0.418276 0.868165 -0.026018 -0.519798 0.730540 -0.638459 -0.565236 0.170187
ا -0.403045 -0.042057 1.210210 -2.591387 -0.590544 2.996817 0.784004 -0.107365 -0.001788 1.763587 0.702283 -0.181121 -1.782119 -0.119820 1.259705 3.564828 1.751919 1.333155 2.560006 3.581723 0.614137 -0.148250 -1.595580 -0.047992 0.098500 -1.079514 1.556180 2.306500 -0.851840 0.240621 -0.110690 1.976827 -1.680526 2.171917 0.122467 0.922565 -0.071275 0.720958 1.292793 0.430377 -4.007732 0.284894 -0.638141 1.646685 -1.504868 -1.159267 1.012390 -2.535238 -0.659797 -1.798367
ा -0.080769 -0.108706 1.104042 -2.191828 -0.514162 3.068495 0.918135 -0.041060 -0.239149 1.724243 0.508725 -0.427703 -1.763899 0.269947 0.983198 3.744146 2.025476 0.804100 3.258237 3.629227 0.444791 0.092134 -1.435992 0.446367 0.094734 -1.340963 0.863371 2.322647 -0.759965 0.735646 -0.200505 1.786921 -2.467596 2.194460 -0.057598 1.033371 -0.146594 0.340094 1.299764 0.991979 -4.450812 -0.327102 -0.759954 1.120745 -1.167952 -1.007771 1.474699 -3.085183 -0.356065 -1.496863
Z -0.696127 -0.030505 0.084380 -2.154210 0.585436 0.946446 -1.014353 -0.113587 -1.049007 0.779341 -0.067055 -0.576905 -0.772123 -0.304782 0.848017 0.220925 -0.436756 1.008466 2.008365 1.069507 0.112135 -0.059006 -0.859360 0.296286 0.292909 0.899793 0.345448 0.013152 -0.693603 0.238604 0.205597 1.360237 -0.944513 1.249848 0.393793 -0.509093 0.570458 -1.117799 -0.515480 -1.772947 -1.671155 -0.185281 0.779619 0.820938 -0.915807 0.407430 0.241907 0.036323 -1.005132 0.825531
& -0.142259 0.193414 0.489130 -0.723035 0.158757 0.270963 -0.343416 -0.284414 -0.398179 0.247593 -0.110126 -0.100027 -0.122626 0.135445 0.129287 0.170039 0.004229 0.342590 0.493988 0.608672 0.052414 -0.220823 -0.197998 0.109330 0.075495 -0.078651 -0.078012 0.239732 0.122265 0.042240 -0.229052 0.424177 -0.330311 0.333468 0.301827 -0.197333 0.225831 0.074193 0.012239 -0.886463 -0.933897 0.081208 0.010997 0.195885 -0.600122 -0.147893 0.385392 0.070562 0.166697 0.094571
! -0.179317 -0.082257 -0.602105 -0.445701 -0.109510 0.359738 0.010942 0.288537 -0.654280 0.423799 -0.364821 -0.125948 0.253197 0.445296 0.581594 0.356521 -0.554498 0.509237 0.595995 0.455991 0.359648 0.090584 0.261567 0.068274 0.370165 -0.187557 0.357814 0.716786 0.013774 0.255910 -0.465232 0.501751 -0.104929 0.905661 -0.176679 0.255711 0.048139 -0.654482 -0.015912 -0.749206 -1.063826 -0.256210 -0.193766 0.571268 -0.409551 -0.234522 0.802694 -0.422856 -0.447977 0.192356
र -0.098257 -0.128327 0.727177 -2.148382 -0.322262 2.651346 0.448349 -0.125478 -0.246242 1.735915 0.213949 -0.466022 -1.589962 0.298896 0.891883 3.226570 1.594520 0.625821 2.768866 3.016426 0.460893 -0.196644 -1.396505 0.385106 0.198199 -0.892875 0.967461 1.980835 -0.786955 0.750241 0.017479 1.697112 -1.860066 2.107040 -0.094111 0.554937 -0.268341 0.173760 0.929393 0.740491 -3.734807 -0.288019 -0.488542 0.973282 -1.056427 -0.687963 1.304423 -2.630183 -0.388838 -1.177358
ل -0.256381 -0.066360 1.026884 -2.120997 -0.562934 2.815667 0.443968 -0.278571 -0.030151 1.509061 0.765817 -0.411957 -1.270827 -0.070843 1.240051 3.105665 1.588979 1.012443 2.379502 2.997070 0.552022 -0.376790 -1.475629 -0.218778 0.016698 -0.854681 1.272665 1.882548 -0.816577 0.128425 -0.126542 1.725525 -1.434919 1.841613 0.356496 0.955471 0.193096 0.467587 1.143249 0.350100 -3.427427 0.211211 -0.904358 1.372138 -1.334423 -1.050096 0.840271 -2.207103 -0.554563 -1.551845
् 0.042966 -0.162616 0.846563 -2.089907 -0.449417 3.071342 0.770903 -0.276383 -0.160605 1.946210 0.416208 -0.468254 -1.609102 0.173171 1.313901 3.507112 2.147541 0.797992 3.109972 3.376281 0.626472 0.010761 -1.635346 0.345186 0.202772 -1.088935 0.939485 2.109459 -0.717907 0.690807 -0.274867 1.853652 -1.866620 2.216061 -0.096701 0.612434 -0.222530 0.410665 1.295760 0.778093 -4.220482 -0.318704 -0.707861 1.272906 -1.118736 -0.938582 1.168522 -2.975809 -0.528310 -1.478840
Q -0.357266 -0.008763 0.008615 -1.990991 0.515616 0.352839 -1.556061 -0.139233 -0.831739 0.404860 -0.156104 -0.505123 -0.474316 -0.073945 0.614554 0.500470 -0.754551 1.244152 1.444400 0.807884 -0.126821 -0.174147 -0.040192 0.618663 0.630154 0.659136 0.425465 -0.236067 -0.551178 -0.055567 -0.039737 1.219473 -1.027398 0.736421 0.253075 -0.388511 -0.009931 -1.532663 -0.389651 -2.060113 -1.751756 -0.107689 0.290414 0.783408 -0.994755 0.653374 0.552675 -0.155648 -0.879501 1.284754
ഝ -0.401537 0.338484 -0.303858 -0.189285 -0.166271 -0.138353 0.118629 0.157843 -0.567023 -0.045695 0.445000 -0.207572 -0.370753 0.678494 0.681646 -0.035195 0.471146 -0.326872 0.101254 0.388585 -0.094259 0.197648 0.050839 -0.469166 -0.099952 0.483641 -0.618918 0.460888 -0.223600 0.491468 0.388495 0.568165 0.111172 0.654363 0.205940 -0.125623 -0.528787 -0.402425 -0.264898 -0.424058 -0.285984 -0.102928 0.142354 0.137188 0.514375 -0.528183 0.168359 -0.950932 0.035953 -0.115043
| -0.484701 -0.733950 0.165636 -0.388129 0.712254 0.213367 -0.691493 -0.178635 -0.030860 0.962340 -0.981301 -0.938318 0.319218 0.197826 -0.044499 -0.997467 -0.289977 0.499272 0.399390 0.624558 0.514892 -0.376313 0.412814 -0.001645 -0.100718 -0.362152 -0.036826 0.868899 -0.288853 -0.201983 -0.995322 0.642208 -0.888098 0.490171 0.430978 -0.240373 0.423260 -1.055516 -0.346334 -1.391948 -1.251028 -0.018090 -0.175808 1.128859 -0.040572 -0.317112 0.421235 0.329031 -0.946294 -0.226405
< -0.322010 0.207297 0.013707 -0.797866 -0.028540 0.449678 -0.108365 0.077000 -0.592763 0.168468 -0.060815 -0.353340 -0.280102 0.145392 0.367443 -0.382607 0.022502 0.309976 0.522723 0.681695 0.100256 -0.244683 -0.199940 0.303569 -0.062910 0.266265 -0.128020 0.062706 -0.115562 0.035403 -0.372267 0.505231 -0.462885 1.124541 0.135494 -0.223385 0.601719 -0.101814 -0.010993 -0.754645 -0.709938 -0.036989 -0.084735 0.383147 -0.051107 -0.160601 -0.015517 -0.024125 -0.369468 0.268820
` 0.369368 -0.140782 0.483353 -0.305985 -0.402351 -0.255340 -0.187673 0.112320 -0.518790 -0.290402 0.571958 0.472241 -0.269986 -0.104725 0.357701 0.461007 -0.448969 -0.816913 0.296836 0.020669 -0.127399 0.161893 0.146860 -0.525789 0.101513 0.201222 -0.060926 0.092792 0.056637 -0.173340 0.025627 -0.153331 0.192862 0.767732 -0.038755 0.052506 -0.469126 -0.730761 0.021308 -0.202619 -0.956328 -0.064852 0.251316 0.327666 0.006383 -0.094171 0.708969 -0.890180 -0.008018 -0.388543
ம -0.032795 0.144354 -0.213332 -1.253947 0.067636 2.038325 0.205810 0.538365 -0.213864 1.333862 -0.063063 -0.465811 -1.234976 0.249723 1.193712 2.153020 0.467447 0.248437 1.785277 2.067527 0.498949 0.056149 -0.809007 0.400489 0.324330 -0.983656 0.442633 1.646300 -0.905735 0.655924 0.106763 1.216897 -1.731388 0.742473 -0.092600 0.945296 -0.075766 0.187731 0.850273 0.837353 -2.493093 -0.252688 -0.340614 0.851080 -0.615032 -1.103625 0.499014 -1.613236 -0.004839 -0.500311
م 0.051515 0.072776 0.761252 -1.493225 -0.222453 2.028916 0.771686 -0.103576 -0.049586 1.184281 0.579689 -0.192837 -1.069272 -0.151724 1.174835 2.617353 1.497166 0.801127 1.993933 2.370859 0.311123 -0.105314 -1.126642 -0.176682 0.271648 -0.903364 0.846138 1.624162 -0.485157 0.322536 -0.079304 1.290113 -1.302489 1.508378 0.367697 0.701274 0.154690 0.414794 0.996336 0.425183 -2.757494 0.099073 -0.838042 1.130172 -0.934674 -0.880070 0.763039 -1.738269 -0.114940 -1.345974
ر -0.009528 0.001204 0.868335 -1.712069 -0.242719 2.147525 0.760488 -0.484742 -0.126631 1.101869 0.626832 -0.171514 -0.992831 -0.093296 0.998894 2.620400 1.283601 1.085770 2.165194 2.338692 0.323341 -0.064236 -1.200663 -0.173046 0.360600 -0.892189 0.780397 1.758120 -0.628442 0.351675 -0.112054 1.235170 -1.397670 1.556284 0.305294 0.691505 -0.068241 0.302548 1.201758 0.421301 -3.015459 0.231867 -0.667270 1.010619 -1.009621 -0.852968 0.915679 -1.879857 -0.326679 -1.402110
ா -0.122468 0.087614 -0.091700 -1.358094 -0.050120 2.197511 0.154053 0.278996 -0.113348 1.482227 -0.150113 -0.425112 -1.528901 0.089574 1.350084 2.317054 0.863844 0.640642 2.113998 2.223066 0.543589 -0.123651 -0.801953 0.522744 0.560288 -1.086677 0.519175 1.901602 -0.726101 0.786490 0.337517 1.283149 -1.728828 0.985263 -0.315408 0.642717 -0.223668 0.376171 0.929752 0.916550 -2.668158 -0.464506 -0.249261 0.853600 -0.773086 -0.955773 0.496332 -1.737904 0.016950 -0.702873
ி -0.052889 0.059108 -0.239014 -1.389933 -0.041018 2.390738 0.231615 0.312605 -0.152399 1.475486 -0.035919 -0.447167 -1.311766 0.195514 1.254389 2.397292 0.820296 0.518126 2.313698 2.226054 0.445395 0.013612 -0.769158 0.545498 0.269726 -0.918795 0.559577 1.596682 -0.816415 0.747954 0.240254 1.301346 -1.590837 0.975873 -0.317266 0.794368 -0.096189 0.456320 0.732091 0.999938 -2.603651 -0.267913 -0.193886 0.720394 -0.656797 -1.101236 0.330849 -1.667348 0.152927 -0.426779
न 0.111116 -0.140483 0.611468 -1.483335 -0.183467 1.860060 0.467189 -0.385878 -0.175316 1.092190 0.376172 0.050866 -1.006828 0.048336 0.815660 2.402413 1.195367 0.526314 2.007430 2.159582 0.210950 0.235849 -1.089587 0.399935 0.239034 -0.674034 0.620807 1.632296 -0.481242 0.738987 -0.040341 1.161035 -1.364807 1.440442 0.017362 0.214381 -0.109461 0.020103 0.756317 0.487131 -2.549482 -0.188944 -0.401082 0.467629 -0.745350 -0.634630 0.777859 -1.760781 -0.159753 -1.009195
ர -0.242426 0.028922 -0.214051 -1.262624 0.177138 2.215106 0.168529 0.308198 -0.052709 1.406231 -0.057371 -0.357347 -1.309808 0.222491 1.242249 2.250720 0.907454 0.535242 1.985545 2.255121 0.490039 0.032411 -0.599400 0.277571 0.057061 -0.973853 0.473944 1.638789 -0.691365 0.757615 0.321074 1.205652 -1.389059 1.115086 -0.288892 0.760755 -0.205593 0.410057 0.786668 0.922196 -2.429850 -0.133915 -0.262525 0.627388 -0.667581 -1.041433 0.444849 -1.491795 0.047088 -0.615638
क -0.010200 -0.004708 0.512928 -1.480353 -0.001057 1.734602 0.301602 -0.289996 -0.202295 1.252917 0.210279 -0.150579 -0.879170 0.106880 0.680789 2.059597 1.114462 0.522829 1.823928 1.959184 0.316246 0.171563 -0.925938 0.366192 0.169501 -0.414379 0.675010 1.579695 -0.399959 0.602232 0.098570 1.114113 -1.164140 1.406229 -0.141153 0.211266 -0.214196 0.307845 0.467605 0.328433 -2.281136 -0.128380 -0.322664 0.543997 -0.846424 -0.469805 0.822839 -1.644053 -0.197563 -0.791422
ن -0.122929 0.094327 0.636808 -1.589205 -0.195114 1.665949 0.476758 -0.212595 -0.172340 0.944757 0.616807 -0.029653 -0.635108 -0.067977 0.862888 2.144665 0.862059 0.783943 1.668978 1.888836 0.349695 0.034946 -0.950840 0.083934 0.289932 -0.610979 0.717296 1.461080 -0.553777 0.178760 -0.148444 0.926166 -1.078397 1.222533 0.185041 0.510079 -0.022673 0.282730 0.885092 0.278104 -2.376533 0.179942 -0.462005 0.984352 -0.765301 -0.834467 0.668103 -1.644466 -0.231424 -1.059780
é -0.284561 -0.111714 -0.262922 -0.188219 0.293596 0.031819 -0.751846 0.070730 -0.157962 0.473609 -0.332729 -0.210557 -0.021023 0.247258 0.288208 -0.723311 -0.114144 0.206392 0.229960 0.551682 0.358071 -0.125277 -0.168493 -0.260601 0.032149 0.273925 -0.056780 0.658406 -0.406363 -0.109009 -0.293732 0.442129 -0.560484 0.510768 -0.230614 -0.060777 0.342741 -0.730357 -0.586623 -0.499411 -1.110834 -0.162448 0.359090 0.884348 -0.081683 -0.415173 0.508636 0.386032 -0.655746 0.078385
ि 0.050562 -0.071797 0.482744 -1.309156 -0.233673 1.900481 0.430122 -0.458263 -0.276466 1.090434 0.267594 -0.075045 -1.015550 0.089127 0.877598 2.355491 1.314900 0.663912 2.142321 2.242809 0.187260 0.151538 -1.139031 0.121848 0.336810 -0.729981 0.487018 1.622553 -0.546196 0.645937 -0.108776 1.221158 -1.383658 1.539793 -0.058646 0.243875 -0.222387 0.012509 0.801184 0.453915 -2.801915 -0.108289 -0.513151 0.574046 -0.732627 -0.564482 0.989722 -1.767485 -0.212857 -1.118771
म 0.150658 -0.040403 0.478881 -1.360021 -0.156949 1.751465 0.239518 -0.209561 -0.184092 1.126801 0.147754 -0.154418 -1.004540 0.088659 0.743565 2.028518 0.966188 0.346750 1.739339 1.866835 0.120308 -0.007376 -0.823518 0.213754 0.117951 -0.528692 0.624865 1.256805 -0.333555 0.536021 -0.003407 1.200815 -1.106619 1.277846 0.038218 0.102221 -0.139022 0.137734 0.457265 0.352150 -2.409369 -0.092903 -0.301263 0.552593 -0.729797 -0.436812 0.585674 -1.687671 -0.230792 -0.827589
ā -0.488718 -0.174161 -0.677137 0.085119 0.400685 0.221984 -0.305566 0.183201 -0.463679 0.467711 -0.392102 -0.621757 0.117971 0.405806 0.245053 -0.814200 -0.046244 0.483081 0.455274 0.483081 0.500527 -0.530286 0.116895 0.040419 0.264990 0.157136 0.008465 0.511578 -0.358412 -0.104867 -0.707312 0.320761 -0.636813 0.696931 -0.165353 0.611953 0.403299 -0.669989 -0.365357 -1.107988 -1.464535 -0.124708 0.257001 1.510885 0.116234 -0.794995 0.743249 0.492195 -0.706376 0.425588
* -0.055697 0.026311 0.125162 -0.709261 0.260092 0.476702 -0.011703 -0.149524 -0.770387 0.980708 0.066369 -0.146496 -0.301495 0.161820 0.524453 0.371999 -0.129916 0.451410 0.730033 0.644836 0.146083 0.225214 -0.308550 0.225481 0.190570 -0.033115 -0.084233 0.126520 -0.162644 0.339759 0.082923 0.507867 -0.569251 0.959670 0.315040 -0.028337 0.063591 -0.200172 -0.282097 -0.566377 -0.932190 0.138809 -0.170672 0.469433 -0.208345 -0.347515 0.195807 -0.343066 -0.216727 0.126080
د -0.014703 0.019253 0.732480 -1.320833 -0.086976 1.520513 0.468628 -0.105935 -0.135034 0.981589 0.517541 -0.073444 -0.862317 -0.123110 0.949860 2.068702 1.014321 0.706868 1.554498 1.813688 0.264230 -0.037014 -0.821442 0.072713 0.323471 -0.655942 0.786786 1.362959 -0.582416 0.210495 -0.141758 0.769650 -1.056668 1.076377 0.370947 0.411852 -0.130297 0.279345 0.886360 0.194902 -2.341614 0.170377 -0.492967 0.935098 -0.821727 -0.630015 0.534455 -1.584029 -0.317270 -0.983987
ي -0.225788 0.178246 0.653291 -1.418943 -0.188315 1.657515 0.670511 -0.121473 -0.156494 0.868965 0.487395 -0.253453 -0.721497 -0.015225 0.930170 2.142935 0.912459 0.744820 1.657050 2.010244 0.475501 0.008021 -0.939297 0.094760 0.254167 -0.702142 0.628881 1.424454 -0.585368 0.199272 -0.216531 0.987104 -1.161720 1.061129 0.210978 0.628105 0.077957 0.230229 0.828009 0.249755 -2.285289 0.122998 -0.636011 1.111945 -0.659250 -0.911505 0.736164 -1.442544 -0.257569 -0.924121
ட -0.334587 0.228720 -0.172058 -0.984821 -0.053396 1.825947 0.022578 0.538441 -0.039208 1.191091 -0.080854 -0.449432 -1.458048 0.112096 1.001098 1.705655 0.507314 0.487258 1.748690 1.863290 0.237535 -0.127373 -0.582805 0.299518 0.427711 -0.916086 0.342770 1.365678 -0.872117 0.380048 0.300438 0.971123 -1.439263 0.660257 -0.221879 0.688476 -0.013667 0.116915 0.756988 0.718901 -2.090942 -0.319237 -0.206079 0.540388 -0.720621 -0.640230 0.289623 -1.306795 0.040847 -0.527149
ب 0.048918 0.056015 0.654479 -1.151982 -0.040852 1.507968 0.551539 -0.257560 -0.018926 1.002618 0.533489 -0.143972 -0.754962 -0.169013 0.960729 2.031142 1.013246 0.609227 1.353295 1.675233 0.389112 0.116889 -0.798568 -0.040058 0.209918 -0.463534 0.576270 1.176326 -0.443385 0.168531 -0.074006 0.897410 -0.908945 1.164746 0.348106 0.295375 -0.149015 0.233810 0.752732 0.303917 -2.188301 0.147796 -0.484025 0.915231 -0.712113 -0.655814 0.482706 -1.360547 -0.173904 -0.928016
ी 0.236535 0.005150 0.480691 -1.102562 0.035202 1.624887 0.539182 -0.346749 -0.275975 0.965934 0.244633 -0.109812 -0.744984 0.094271 0.802955 2.163453 1.021811 0.521376 1.688824 1.809288 0.272950 0.241618 -0.993113 0.468367 0.352502 -0.603300 0.413427 1.531255 -0.324198 0.669801 -0.052740 0.889453 -1.214564 1.144505 0.140886 0.224523 -0.200845 0.105683 0.789633 0.394906 -2.336059 -0.109156 -0.524016 0.646831 -0.660399 -0.602407 0.872391 -1.633920 -0.025084 -0.882418
‎ 0.006373 0.054162 0.379641 -0.814000 -0.130836 0.858269 0.386226 -0.275735 -0.351790 0.229291 0.456561 -0.064615 -0.405926 0.101258 0.583163 1.304380 0.480268 0.327186 1.013394 1.016455 0.300165 0.049232 -0.498537 0.001892 0.117869 -0.287679 0.197014 0.862619 -0.232417 0.254085 -0.155129 0.467471 -0.700827 0.888383 0.242368 0.456572 -0.089863 0.065351 0.750006 0.127238 -1.465369 0.114570 -0.252082 0.481790 -0.365518 -0.694030 0.328573 -0.820425 0.014876 -0.723578
и -0.022855 -0.468010 -0.071565 -1.548514 -0.188898 2.380386 0.749026 -0.366615 -0.847617 0.902125 -0.044994 -0.362807 -0.687410 -0.410630 1.776030 2.415352 0.977685 1.110601 1.948852 1.698287 1.002583 0.247813 -0.648304 0.593198 0.410501 -0.735415 -0.069820 1.395562 -1.352703 0.797544 -0.236105 1.262286 -1.650354 1.407268 0.200970 0.990882 0.082787 0.518984 0.515042 0.482555 -2.662083 0.355726 -0.373482 1.726098 0.015393 -1.815508 0.384050 -1.444931 -0.575040 -0.547437
• -0.000544 0.073898 0.076320 -0.065912 0.007976 0.149134 -0.018811 -0.063065 -0.028904 0.012381 0.022332 -0.068708 -0.114178 0.048037 0.097476 -0.071724 -0.068116 0.038581 0.128957 0.059158 -0.077282 -0.043466 -0.016058 -0.024171 -0.002878 0.033198 -0.015836 -0.095699 -0.005614 0.045429 0.000851 0.149211 -0.049898 0.099495 -0.043293 -0.056728 -0.005066 -0.083621 -0.103201 -0.123177 -0.119343 0.027924 0.045875 -0.006692 -0.140170 -0.003701 0.074776 0.000891 0.038688 0.019511
ு -0.010158 0.063004 -0.075992 -1.225956 -0.133936 2.139402 0.196254 0.227530 -0.216255 1.330536 -0.033833 -0.433790 -1.192063 0.097312 1.250856 2.060117 0.688516 0.468278 1.675634 1.989209 0.390917 0.146902 -0.772759 0.260777 0.237319 -0.897242 0.504641 1.409253 -0.828054 0.744861 0.189681 1.371469 -1.385778 0.796220 -0.276979 0.615698 0.015041 0.370418 0.618799 0.743925 -2.532949 -0.268622 -0.107858 0.881162 -0.437064 -1.039705 0.246725 -1.608668 0.048461 -0.463255
α 0.048203 -0.125893 0.761467 -1.452365 -0.017861 1.308565 -0.125107 -1.037114 -0.769401 0.405838 -0.037289 -0.283529 -0.334112 -0.211830 0.869405 1.840240 0.173754 0.954228 1.297521 0.826547 0.699330 0.266262 -0.532479 0.557786 0.324273 -0.221221 0.105532 1.263103 -0.193656 0.369936 -0.527378 0.852357 -0.879908 1.051394 0.257372 0.076139 -0.090304 -0.369639 0.546933 -0.341494 -2.137805 0.141910 -0.297565 0.749011 -0.299293 -0.653450 0.226072 -1.120235 -0.878908 -0.476821
൪ 0.181861 0.153837 0.067144 -0.312638 0.336930 0.127935 -0.140114 -0.163755 -0.285175 -0.048303 0.273407 0.094200 -0.261492 0.069028 0.129702 0.244872 -0.011930 0.252053 0.309524 0.075650 0.040550 0.214346 -0.149627 -0.209122 0.077621 0.078795 0.025535 0.105856 0.041722 0.336128 0.025064 0.157651 0.154037 0.352260 0.393453 -0.113888 -0.092146 -0.263444 0.055290 -0.169215 -0.249681 0.002546 -0.278527 0.072954 -0.160561 0.198579 -0.080424 -0.181846 -0.260409 -0.278036
க -0.264675 0.092799 -0.057122 -1.022029 -0.043416 1.771476 0.041564 0.182461 -0.113797 1.234423 -0.095750 -0.315527 -1.212195 0.056187 1.098838 1.818185 0.631306 0.466694 1.786858 1.686227 0.387961 -0.028117 -0.559782 0.272611 0.301632 -0.724069 0.401018 1.389020 -0.695534 0.584313 0.392055 0.980599 -1.243741 0.837751 -0.205388 0.434432 -0.187077 0.216811 0.565328 0.715270 -2.034351 -0.358573 -0.130104 0.509605 -0.729083 -0.594923 0.296582 -1.237157 -0.051951 -0.628978
व -0.002302 0.053716 0.424906 -1.376790 -0.089377 1.747511 0.310169 -0.451738 -0.230274 0.936859 0.179222 -0.159163 -0.746788 0.087754 0.708212 1.861048 0.914362 0.606549 1.739052 1.760005 0.166398 0.193204 -0.836101 0.408155 0.191206 -0.465379 0.335982 1.515557 -0.312223 0.648026 0.075132 1.013227 -1.064840 1.182411 -0.016058 0.099482 -0.317503 0.158466 0.536319 0.423364 -2.084846 0.050704 -0.369304 0.306299 -0.611077 -0.511130 0.567173 -1.532211 -0.160290 -0.928629
त 0.091871 -0.061886 0.350463 -1.372665 -0.289300 1.845126 0.362915 -0.362520 -0.141146 1.087874 0.184604 -0.069960 -1.016551 -0.034198 0.756626 2.068142 1.055966 0.525620 1.836511 1.969388 0.194519 -0.053766 -0.912893 0.163338 0.124920 -0.647550 0.578766 1.428544 -0.320356 0.700935 -0.068288 1.209395 -1.248719 1.337175 -0.157654 0.198539 -0.140680 0.179091 0.522548 0.401371 -2.391695 0.024977 -0.371608 0.527763 -0.749941 -0.424651 0.764459 -1.579808 -0.193865 -0.907071
த -0.182928 0.141207 -0.166212 -1.197812 0.016238 1.721910 -0.121761 0.173818 -0.084319 1.202698 -0.069661 -0.164640 -0.952536 0.259251 0.928887 1.678331 0.581730 0.563691 1.473978 1.746668 0.338734 -0.094380 -0.719877 0.302753 0.220929 -0.549742 0.426410 1.279148 -0.468216 0.508072 0.305928 1.142910 -1.088943 0.928992 -0.345814 0.450171 -0.194456 0.166655 0.339766 0.442723 -2.074118 -0.126667 -0.013665 0.456615 -0.724898 -0.743522 0.294265 -1.227686 -0.162358 -0.387555
а 0.087567 -0.422120 0.089654 -1.577325 -0.198285 2.306285 0.795656 -0.349188 -0.769779 0.944338 -0.174139 -0.261733 -0.535650 -0.538210 1.807123 2.558988 1.120027 0.964772 1.838081 1.765337 1.046412 0.410854 -0.591292 0.650865 0.602075 -0.869554 0.017727 1.503722 -1.454445 0.795574 -0.463685 1.422287 -1.695261 1.189193 0.207141 0.958474 -0.041340 0.452356 0.512695 0.296996 -2.792747 0.555053 -0.453880 1.757458 0.022731 -1.568413 0.304601 -1.510148 -0.682865 -0.543117
→ -0.050408 -0.053125 0.021630 -0.111026 -0.010372 -0.045977 -0.055431 -0.017902 0.022062 0.123300 -0.036893 -0.129549 0.012895 0.019243 0.062985 -0.155262 0.013425 0.056498 -0.003140 0.012668 0.039834 -0.030873 -0.041528 -0.060800 0.037596 -0.027312 0.003278 -0.011540 0.000259 -0.030915 -0.115682 -0.070556 0.001851 -0.038567 -0.014772 0.051645 0.037319 -0.035660 -0.086083 -0.006398 -0.010079 -0.083791 0.012450 0.068010 0.022034 -0.040089 -0.065466 -0.029306 -0.093199 0.046560
ˈ -0.545273 -0.306494 -0.574371 -0.703790 0.822097 0.496541 -0.306237 -0.170473 -0.575965 -0.013749 -1.008597 -0.540306 0.506495 0.588501 0.611195 -0.379972 -0.134435 1.087570 0.391427 0.313901 0.567291 -0.252243 0.325601 0.048931 0.224532 0.183777 -0.121704 0.784914 -0.343193 -0.202365 -0.636789 0.568126 -1.065423 0.484100 -0.714390 0.622481 0.397014 -0.750657 0.001437 -1.032051 -1.545667 -0.194720 0.311518 1.731234 0.254085 -0.694315 0.339564 0.324448 -0.662258 0.398302
൧ 0.326899 -0.108560 0.921808 -1.079052 -0.643606 0.581011 1.294442 -0.324265 -0.856475 0.385750 -0.039371 -0.710615 -0.248193 -1.000093 1.105194 1.288483 1.080850 0.446348 0.186073 0.813358 0.067527 0.083008 -0.232661 0.201269 0.765441 -1.601678 0.203066 1.329160 -0.504895 0.328111 -0.771240 0.469870 -0.889513 0.657636 0.135398 0.593722 0.122274 0.125593 0.809548 -0.045841 -1.536701 0.648850 -1.035965 0.838089 0.343535 0.083700 -0.286246 -1.047763 -0.361144 -0.083389
द -0.094439 -0.000779 0.404917 -1.131727 -0.161400 1.539347 0.224476 -0.237022 -0.021458 0.887743 0.232725 -0.074530 -0.787181 0.028843 0.731350 1.634886 0.999378 0.531287 1.505854 1.744653 0.072911 0.067799 -0.862247 0.290398 0.198127 -0.470611 0.573708 1.165582 -0.269197 0.572903 0.015757 0.966567 -0.824759 1.142047 -0.050657 0.064077 -0.152547 0.050916 0.416609 0.274130 -2.080763 -0.026934 -0.160714 0.412288 -0.614322 -0.321482 0.595316 -1.429457 -0.223742 -0.828051
о -0.021773 -0.372802 0.117478 -1.422076 -0.187248 2.232598 0.625640 -0.490261 -0.802583 0.865847 -0.148421 -0.307333 -0.558138 -0.358229 1.662826 2.271805 1.095105 1.036215 1.755723 1.702023 0.950789 0.368552 -0.572313 0.440522 0.456656 -0.604294 -0.143726 1.240712 -1.350607 0.792930 -0.168264 1.174573 -1.386048 1.324958 0.163773 0.672116 -0.043659 0.489459 0.424873 0.420549 -2.526415 0.373776 -0.361203 1.596163 -0.028411 -1.593865 0.397416 -1.217719 -0.592756 -0.434059
ப -0.069112 0.130398 -0.114519 -0.999406 -0.025078 1.717340 -0.019299 0.219216 -0.177908 1.169251 -0.169293 -0.326398 -1.112235 0.037683 1.072814 1.482584 0.478067 0.371248 1.479855 1.616508 0.281523 -0.052532 -0.460156 0.354654 0.146284 -0.610570 0.373053 1.039785 -0.566210 0.532075 0.083128 0.996460 -1.003998 0.747277 -0.210604 0.280770 0.008046 0.109536 0.432599 0.469480 -1.846750 -0.221730 -0.060253 0.440014 -0.597371 -0.684230 0.247356 -1.112728 -0.068740 -0.525759
و -0.075474 0.188922 0.670957 -1.344900 -0.167518 1.458188 0.445346 -0.269926 -0.015712 0.851299 0.442046 -0.147653 -0.738757 -0.271323 0.983745 1.856904 0.915678 0.859460 1.497780 1.724865 0.337861 0.165759 -0.883016 0.008963 0.254467 -0.536807 0.556211 1.167742 -0.484740 0.234215 -0.071725 0.853737 -0.966342 1.098971 0.242722 0.347731 -0.001558 0.093613 0.795504 0.232725 -2.117983 0.155749 -0.405590 0.837957 -0.745660 -0.582817 0.524392 -1.437516 -0.275938 -1.009853
